digraph Tree {
node [shape=box] ;
0 [label="X[9] <= 3.5\ngini = 0.2158\nsamples = 32761\nvalue = [28731, 4030]"] ;
1 [label="X[2] <= 4.5\ngini = 0.1743\nsamples = 31351\nvalue = [28328, 3023]"] ;
0 -> 1 [labeldistance=2.5, labelangle=45, headlabel="True"] ;
2 [label="X[2] <= 2.5\ngini = 0.1163\nsamples = 19203\nvalue = [18012, 1191]"] ;
1 -> 2 ;
3 [label="X[14] <= 15556.0\ngini = 0.0619\nsamples = 5008\nvalue = [4848, 160]"] ;
2 -> 3 ;
4 [label="X[27] <= 6262.5\ngini = 0.0599\nsamples = 4987\nvalue = [4833, 154]"] ;
3 -> 4 ;
5 [label="X[20] <= 6375.5\ngini = 0.1341\nsamples = 581\nvalue = [539, 42]"] ;
4 -> 5 ;
6 [label="gini = 0.3261\nsamples = 39\nvalue = [31, 8]"] ;
5 -> 6 ;
7 [label="X[24] <= 36.5\ngini = 0.1176\nsamples = 542\nvalue = [508, 34]"] ;
5 -> 7 ;
8 [label="X[29] <= 1062.0\ngini = 0.2235\nsamples = 117\nvalue = [102, 15]"] ;
7 -> 8 ;
9 [label="X[19] <= 7464.0\ngini = 0.2803\nsamples = 89\nvalue = [74, 15]"] ;
8 -> 9 ;
10 [label="X[26] <= 6.0\ngini = 0.1975\nsamples = 63\nvalue = [56, 7]"] ;
9 -> 10 ;
11 [label="gini = 0.3367\nsamples = 28\nvalue = [22, 6]"] ;
10 -> 11 ;
12 [label="gini = 0.0555\nsamples = 35\nvalue = [34, 1]"] ;
10 -> 12 ;
13 [label="gini = 0.426\nsamples = 26\nvalue = [18, 8]"] ;
9 -> 13 ;
14 [label="gini = 0.0\nsamples = 28\nvalue = [28, 0]"] ;
8 -> 14 ;
15 [label="X[27] <= 6217.5\ngini = 0.0854\nsamples = 425\nvalue = [406, 19]"] ;
7 -> 15 ;
16 [label="X[21] <= 11954.5\ngini = 0.0725\nsamples = 398\nvalue = [383, 15]"] ;
15 -> 16 ;
17 [label="X[20] <= 7261.0\ngini = 0.0626\nsamples = 371\nvalue = [359, 12]"] ;
16 -> 17 ;
18 [label="X[15] <= 6962.0\ngini = 0.1687\nsamples = 43\nvalue = [39, 4]"] ;
17 -> 18 ;
19 [label="gini = 0.0\nsamples = 22\nvalue = [22, 0]"] ;
18 -> 19 ;
20 [label="gini = 0.3084\nsamples = 21\nvalue = [17, 4]"] ;
18 -> 20 ;
21 [label="X[6] <= 187.5\ngini = 0.0476\nsamples = 328\nvalue = [320, 8]"] ;
17 -> 21 ;
22 [label="X[19] <= 7126.5\ngini = 0.0836\nsamples = 183\nvalue = [175, 8]"] ;
21 -> 22 ;
23 [label="X[27] <= 5467.5\ngini = 0.1372\nsamples = 81\nvalue = [75, 6]"] ;
22 -> 23 ;
24 [label="gini = 0.0\nsamples = 31\nvalue = [31, 0]"] ;
23 -> 24 ;
25 [label="X[10] <= 54540.0\ngini = 0.2112\nsamples = 50\nvalue = [44, 6]"] ;
23 -> 25 ;
26 [label="gini = 0.0768\nsamples = 25\nvalue = [24, 1]"] ;
25 -> 26 ;
27 [label="gini = 0.32\nsamples = 25\nvalue = [20, 5]"] ;
25 -> 27 ;
28 [label="X[14] <= 6507.5\ngini = 0.0384\nsamples = 102\nvalue = [100, 2]"] ;
22 -> 28 ;
29 [label="gini = 0.0\nsamples = 57\nvalue = [57, 0]"] ;
28 -> 29 ;
30 [label="X[14] <= 6745.0\ngini = 0.0849\nsamples = 45\nvalue = [43, 2]"] ;
28 -> 30 ;
31 [label="gini = 0.0907\nsamples = 21\nvalue = [20, 1]"] ;
30 -> 31 ;
32 [label="gini = 0.0799\nsamples = 24\nvalue = [23, 1]"] ;
30 -> 32 ;
33 [label="gini = 0.0\nsamples = 145\nvalue = [145, 0]"] ;
21 -> 33 ;
34 [label="gini = 0.1975\nsamples = 27\nvalue = [24, 3]"] ;
16 -> 34 ;
35 [label="gini = 0.2524\nsamples = 27\nvalue = [23, 4]"] ;
15 -> 35 ;
36 [label="X[25] <= 2.0\ngini = 0.0495\nsamples = 4406\nvalue = [4294, 112]"] ;
4 -> 36 ;
37 [label="X[10] <= 49493.0\ngini = 0.2401\nsamples = 43\nvalue = [37, 6]"] ;
36 -> 37 ;
38 [label="gini = 0.3628\nsamples = 21\nvalue = [16, 5]"] ;
37 -> 38 ;
39 [label="gini = 0.0868\nsamples = 22\nvalue = [21, 1]"] ;
37 -> 39 ;
40 [label="X[6] <= 810.5\ngini = 0.0474\nsamples = 4363\nvalue = [4257, 106]"] ;
36 -> 40 ;
41 [label="X[10] <= 55551.0\ngini = 0.045\nsamples = 4297\nvalue = [4198, 99]"] ;
40 -> 41 ;
42 [label="X[21] <= 14744.5\ngini = 0.0256\nsamples = 1773\nvalue = [1750, 23]"] ;
41 -> 42 ;
43 [label="X[19] <= 8566.5\ngini = 0.0228\nsamples = 1732\nvalue = [1712, 20]"] ;
42 -> 43 ;
44 [label="X[19] <= 8543.5\ngini = 0.0375\nsamples = 890\nvalue = [873, 17]"] ;
43 -> 44 ;
45 [label="X[17] <= 12020.5\ngini = 0.0304\nsamples = 841\nvalue = [828, 13]"] ;
44 -> 45 ;
46 [label="X[21] <= 9622.0\ngini = 0.023\nsamples = 772\nvalue = [763, 9]"] ;
45 -> 46 ;
47 [label="X[26] <= 29.5\ngini = 0.0612\nsamples = 190\nvalue = [184, 6]"] ;
46 -> 47 ;
48 [label="X[27] <= 7050.0\ngini = 0.0353\nsamples = 167\nvalue = [164, 3]"] ;
47 -> 48 ;
49 [label="gini = 0.0\nsamples = 109\nvalue = [109, 0]"] ;
48 -> 49 ;
50 [label="X[27] <= 7335.0\ngini = 0.0981\nsamples = 58\nvalue = [55, 3]"] ;
48 -> 50 ;
51 [label="gini = 0.2449\nsamples = 21\nvalue = [18, 3]"] ;
50 -> 51 ;
52 [label="gini = 0.0\nsamples = 37\nvalue = [37, 0]"] ;
50 -> 52 ;
53 [label="gini = 0.2268\nsamples = 23\nvalue = [20, 3]"] ;
47 -> 53 ;
54 [label="X[29] <= 1044.5\ngini = 0.0103\nsamples = 582\nvalue = [579, 3]"] ;
46 -> 54 ;
55 [label="X[16] <= 10762.0\ngini = 0.0072\nsamples = 556\nvalue = [554, 2]"] ;
54 -> 55 ;
56 [label="gini = 0.0\nsamples = 398\nvalue = [398, 0]"] ;
55 -> 56 ;
57 [label="X[10] <= 48984.0\ngini = 0.025\nsamples = 158\nvalue = [156, 2]"] ;
55 -> 57 ;
58 [label="X[20] <= 11328.0\ngini = 0.0713\nsamples = 54\nvalue = [52, 2]"] ;
57 -> 58 ;
59 [label="gini = 0.142\nsamples = 26\nvalue = [24, 2]"] ;
58 -> 59 ;
60 [label="gini = 0.0\nsamples = 28\nvalue = [28, 0]"] ;
58 -> 60 ;
61 [label="gini = 0.0\nsamples = 104\nvalue = [104, 0]"] ;
57 -> 61 ;
62 [label="gini = 0.074\nsamples = 26\nvalue = [25, 1]"] ;
54 -> 62 ;
63 [label="X[17] <= 12225.5\ngini = 0.1092\nsamples = 69\nvalue = [65, 4]"] ;
45 -> 63 ;
64 [label="gini = 0.2873\nsamples = 23\nvalue = [19, 4]"] ;
63 -> 64 ;
65 [label="gini = 0.0\nsamples = 46\nvalue = [46, 0]"] ;
63 -> 65 ;
66 [label="X[10] <= 50083.5\ngini = 0.1499\nsamples = 49\nvalue = [45, 4]"] ;
44 -> 66 ;
67 [label="gini = 0.0689\nsamples = 28\nvalue = [27, 1]"] ;
66 -> 67 ;
68 [label="gini = 0.2449\nsamples = 21\nvalue = [18, 3]"] ;
66 -> 68 ;
69 [label="X[14] <= 10285.5\ngini = 0.0071\nsamples = 842\nvalue = [839, 3]"] ;
43 -> 69 ;
70 [label="X[25] <= 198.0\ngini = 0.0049\nsamples = 821\nvalue = [819, 2]"] ;
69 -> 70 ;
71 [label="X[18] <= 7770.0\ngini = 0.0025\nsamples = 799\nvalue = [798, 1]"] ;
70 -> 71 ;
72 [label="X[21] <= 12483.0\ngini = 0.0263\nsamples = 75\nvalue = [74, 1]"] ;
71 -> 72 ;
73 [label="gini = 0.0\nsamples = 54\nvalue = [54, 0]"] ;
72 -> 73 ;
74 [label="gini = 0.0907\nsamples = 21\nvalue = [20, 1]"] ;
72 -> 74 ;
75 [label="gini = 0.0\nsamples = 724\nvalue = [724, 0]"] ;
71 -> 75 ;
76 [label="gini = 0.0868\nsamples = 22\nvalue = [21, 1]"] ;
70 -> 76 ;
77 [label="gini = 0.0907\nsamples = 21\nvalue = [20, 1]"] ;
69 -> 77 ;
78 [label="gini = 0.1356\nsamples = 41\nvalue = [38, 3]"] ;
42 -> 78 ;
79 [label="X[13] <= 0.5\ngini = 0.0584\nsamples = 2524\nvalue = [2448, 76]"] ;
41 -> 79 ;
80 [label="X[29] <= 993.0\ngini = 0.0957\nsamples = 814\nvalue = [773, 41]"] ;
79 -> 80 ;
81 [label="X[20] <= 10739.5\ngini = 0.1653\nsamples = 220\nvalue = [200, 20]"] ;
80 -> 81 ;
82 [label="X[21] <= 11227.5\ngini = 0.2919\nsamples = 62\nvalue = [51, 11]"] ;
81 -> 82 ;
83 [label="gini = 0.18\nsamples = 40\nvalue = [36, 4]"] ;
82 -> 83 ;
84 [label="gini = 0.4339\nsamples = 22\nvalue = [15, 7]"] ;
82 -> 84 ;
85 [label="X[17] <= 12566.5\ngini = 0.1074\nsamples = 158\nvalue = [149, 9]"] ;
81 -> 85 ;
86 [label="X[10] <= 65075.0\ngini = 0.0274\nsamples = 72\nvalue = [71, 1]"] ;
85 -> 86 ;
87 [label="gini = 0.0\nsamples = 51\nvalue = [51, 0]"] ;
86 -> 87 ;
88 [label="gini = 0.0907\nsamples = 21\nvalue = [20, 1]"] ;
86 -> 88 ;
89 [label="X[19] <= 10353.5\ngini = 0.1687\nsamples = 86\nvalue = [78, 8]"] ;
85 -> 89 ;
90 [label="gini = 0.2832\nsamples = 41\nvalue = [34, 7]"] ;
89 -> 90 ;
91 [label="X[24] <= 49.0\ngini = 0.0435\nsamples = 45\nvalue = [44, 1]"] ;
89 -> 91 ;
92 [label="gini = 0.0907\nsamples = 21\nvalue = [20, 1]"] ;
91 -> 92 ;
93 [label="gini = 0.0\nsamples = 24\nvalue = [24, 0]"] ;
91 -> 93 ;
94 [label="X[25] <= 173.0\ngini = 0.0682\nsamples = 594\nvalue = [573, 21]"] ;
80 -> 94 ;
95 [label="X[27] <= 10327.5\ngini = 0.048\nsamples = 488\nvalue = [476, 12]"] ;
94 -> 95 ;
96 [label="X[29] <= 1036.5\ngini = 0.0419\nsamples = 467\nvalue = [457, 10]"] ;
95 -> 96 ;
97 [label="X[17] <= 12571.0\ngini = 0.1123\nsamples = 67\nvalue = [63, 4]"] ;
96 -> 97 ;
98 [label="gini = 0.0\nsamples = 37\nvalue = [37, 0]"] ;
97 -> 98 ;
99 [label="gini = 0.2311\nsamples = 30\nvalue = [26, 4]"] ;
97 -> 99 ;
100 [label="X[10] <= 83010.5\ngini = 0.0295\nsamples = 400\nvalue = [394, 6]"] ;
96 -> 100 ;
101 [label="X[24] <= 37.5\ngini = 0.0129\nsamples = 307\nvalue = [305, 2]"] ;
100 -> 101 ;
102 [label="X[20] <= 11409.5\ngini = 0.0512\nsamples = 76\nvalue = [74, 2]"] ;
101 -> 102 ;
103 [label="gini = 0.1723\nsamples = 21\nvalue = [19, 2]"] ;
102 -> 103 ;
104 [label="gini = 0.0\nsamples = 55\nvalue = [55, 0]"] ;
102 -> 104 ;
105 [label="gini = 0.0\nsamples = 231\nvalue = [231, 0]"] ;
101 -> 105 ;
106 [label="X[18] <= 10444.0\ngini = 0.0823\nsamples = 93\nvalue = [89, 4]"] ;
100 -> 106 ;
107 [label="gini = 0.0\nsamples = 66\nvalue = [66, 0]"] ;
106 -> 107 ;
108 [label="gini = 0.2524\nsamples = 27\nvalue = [23, 4]"] ;
106 -> 108 ;
109 [label="gini = 0.1723\nsamples = 21\nvalue = [19, 2]"] ;
95 -> 109 ;
110 [label="X[25] <= 192.0\ngini = 0.1554\nsamples = 106\nvalue = [97, 9]"] ;
94 -> 110 ;
111 [label="X[10] <= 63287.0\ngini = 0.2344\nsamples = 59\nvalue = [51, 8]"] ;
110 -> 111 ;
112 [label="gini = 0.149\nsamples = 37\nvalue = [34, 3]"] ;
111 -> 112 ;
113 [label="gini = 0.3512\nsamples = 22\nvalue = [17, 5]"] ;
111 -> 113 ;
114 [label="X[29] <= 1229.0\ngini = 0.0416\nsamples = 47\nvalue = [46, 1]"] ;
110 -> 114 ;
115 [label="gini = 0.0\nsamples = 26\nvalue = [26, 0]"] ;
114 -> 115 ;
116 [label="gini = 0.0907\nsamples = 21\nvalue = [20, 1]"] ;
114 -> 116 ;
117 [label="X[20] <= 11542.5\ngini = 0.0401\nsamples = 1710\nvalue = [1675, 35]"] ;
79 -> 117 ;
118 [label="X[17] <= 11453.5\ngini = 0.0639\nsamples = 636\nvalue = [615, 21]"] ;
117 -> 118 ;
119 [label="X[10] <= 86071.0\ngini = 0.0339\nsamples = 406\nvalue = [399, 7]"] ;
118 -> 119 ;
120 [label="X[26] <= 26.5\ngini = 0.0256\nsamples = 385\nvalue = [380, 5]"] ;
119 -> 120 ;
121 [label="gini = 0.0\nsamples = 237\nvalue = [237, 0]"] ;
120 -> 121 ;
122 [label="X[29] <= 1075.5\ngini = 0.0653\nsamples = 148\nvalue = [143, 5]"] ;
120 -> 122 ;
123 [label="gini = 0.1388\nsamples = 40\nvalue = [37, 3]"] ;
122 -> 123 ;
124 [label="X[18] <= 7854.0\ngini = 0.0364\nsamples = 108\nvalue = [106, 2]"] ;
122 -> 124 ;
125 [label="gini = 0.0\nsamples = 63\nvalue = [63, 0]"] ;
124 -> 125 ;
126 [label="X[24] <= 44.5\ngini = 0.0849\nsamples = 45\nvalue = [43, 2]"] ;
124 -> 126 ;
127 [label="gini = 0.0\nsamples = 24\nvalue = [24, 0]"] ;
126 -> 127 ;
128 [label="gini = 0.1723\nsamples = 21\nvalue = [19, 2]"] ;
126 -> 128 ;
129 [label="gini = 0.1723\nsamples = 21\nvalue = [19, 2]"] ;
119 -> 129 ;
130 [label="X[10] <= 59945.5\ngini = 0.1143\nsamples = 230\nvalue = [216, 14]"] ;
118 -> 130 ;
131 [label="gini = 0.3084\nsamples = 21\nvalue = [17, 4]"] ;
130 -> 131 ;
132 [label="X[4] <= 518.5\ngini = 0.0911\nsamples = 209\nvalue = [199, 10]"] ;
130 -> 132 ;
133 [label="X[18] <= 9235.5\ngini = 0.1222\nsamples = 153\nvalue = [143, 10]"] ;
132 -> 133 ;
134 [label="X[18] <= 8504.0\ngini = 0.1715\nsamples = 95\nvalue = [86, 9]"] ;
133 -> 134 ;
135 [label="X[17] <= 12623.0\ngini = 0.1023\nsamples = 74\nvalue = [70, 4]"] ;
134 -> 135 ;
136 [label="gini = 0.0\nsamples = 33\nvalue = [33, 0]"] ;
135 -> 136 ;
137 [label="gini = 0.1761\nsamples = 41\nvalue = [37, 4]"] ;
135 -> 137 ;
138 [label="gini = 0.3628\nsamples = 21\nvalue = [16, 5]"] ;
134 -> 138 ;
139 [label="X[7] <= 9.5\ngini = 0.0339\nsamples = 58\nvalue = [57, 1]"] ;
133 -> 139 ;
140 [label="gini = 0.0\nsamples = 37\nvalue = [37, 0]"] ;
139 -> 140 ;
141 [label="gini = 0.0907\nsamples = 21\nvalue = [20, 1]"] ;
139 -> 141 ;
142 [label="gini = 0.0\nsamples = 56\nvalue = [56, 0]"] ;
132 -> 142 ;
143 [label="X[17] <= 15695.5\ngini = 0.0257\nsamples = 1074\nvalue = [1060, 14]"] ;
117 -> 143 ;
144 [label="X[25] <= 196.5\ngini = 0.0126\nsamples = 788\nvalue = [783, 5]"] ;
143 -> 144 ;
145 [label="X[16] <= 9720.5\ngini = 0.0081\nsamples = 738\nvalue = [735, 3]"] ;
144 -> 145 ;
146 [label="X[10] <= 80013.0\ngini = 0.0449\nsamples = 87\nvalue = [85, 2]"] ;
145 -> 146 ;
147 [label="gini = 0.0\nsamples = 66\nvalue = [66, 0]"] ;
146 -> 147 ;
148 [label="gini = 0.1723\nsamples = 21\nvalue = [19, 2]"] ;
146 -> 148 ;
149 [label="X[26] <= 2.5\ngini = 0.0031\nsamples = 651\nvalue = [650, 1]"] ;
145 -> 149 ;
150 [label="X[16] <= 12409.0\ngini = 0.0345\nsamples = 57\nvalue = [56, 1]"] ;
149 -> 150 ;
151 [label="gini = 0.0\nsamples = 36\nvalue = [36, 0]"] ;
150 -> 151 ;
152 [label="gini = 0.0907\nsamples = 21\nvalue = [20, 1]"] ;
150 -> 152 ;
153 [label="gini = 0.0\nsamples = 594\nvalue = [594, 0]"] ;
149 -> 153 ;
154 [label="X[24] <= 56.5\ngini = 0.0768\nsamples = 50\nvalue = [48, 2]"] ;
144 -> 154 ;
155 [label="gini = 0.1472\nsamples = 25\nvalue = [23, 2]"] ;
154 -> 155 ;
156 [label="gini = 0.0\nsamples = 25\nvalue = [25, 0]"] ;
154 -> 156 ;
157 [label="X[20] <= 13235.0\ngini = 0.061\nsamples = 286\nvalue = [277, 9]"] ;
143 -> 157 ;
158 [label="gini = 0.2873\nsamples = 23\nvalue = [19, 4]"] ;
157 -> 158 ;
159 [label="X[17] <= 17259.0\ngini = 0.0373\nsamples = 263\nvalue = [258, 5]"] ;
157 -> 159 ;
160 [label="gini = 0.0\nsamples = 152\nvalue = [152, 0]"] ;
159 -> 160 ;
161 [label="X[19] <= 13860.0\ngini = 0.086\nsamples = 111\nvalue = [106, 5]"] ;
159 -> 161 ;
162 [label="gini = 0.2235\nsamples = 39\nvalue = [34, 5]"] ;
161 -> 162 ;
163 [label="gini = 0.0\nsamples = 72\nvalue = [72, 0]"] ;
161 -> 163 ;
164 [label="X[10] <= 76845.0\ngini = 0.1896\nsamples = 66\nvalue = [59, 7]"] ;
40 -> 164 ;
165 [label="X[21] <= 13378.0\ngini = 0.0868\nsamples = 44\nvalue = [42, 2]"] ;
164 -> 165 ;
166 [label="gini = 0.1723\nsamples = 21\nvalue = [19, 2]"] ;
165 -> 166 ;
167 [label="gini = 0.0\nsamples = 23\nvalue = [23, 0]"] ;
165 -> 167 ;
168 [label="gini = 0.3512\nsamples = 22\nvalue = [17, 5]"] ;
164 -> 168 ;
169 [label="gini = 0.4082\nsamples = 21\nvalue = [15, 6]"] ;
3 -> 169 ;
170 [label="X[27] <= 4477.5\ngini = 0.1347\nsamples = 14195\nvalue = [13164, 1031]"] ;
2 -> 170 ;
171 [label="X[20] <= 8981.0\ngini = 0.2362\nsamples = 782\nvalue = [675, 107]"] ;
170 -> 171 ;
172 [label="X[29] <= 678.5\ngini = 0.2264\nsamples = 753\nvalue = [655, 98]"] ;
171 -> 172 ;
173 [label="X[19] <= 4888.0\ngini = 0.1335\nsamples = 153\nvalue = [142, 11]"] ;
172 -> 173 ;
174 [label="X[25] <= 146.5\ngini = 0.2326\nsamples = 67\nvalue = [58, 9]"] ;
173 -> 174 ;
175 [label="gini = 0.3427\nsamples = 41\nvalue = [32, 9]"] ;
174 -> 175 ;
176 [label="gini = 0.0\nsamples = 26\nvalue = [26, 0]"] ;
174 -> 176 ;
177 [label="X[3] <= 24.5\ngini = 0.0454\nsamples = 86\nvalue = [84, 2]"] ;
173 -> 177 ;
178 [label="gini = 0.0\nsamples = 49\nvalue = [49, 0]"] ;
177 -> 178 ;
179 [label="gini = 0.1023\nsamples = 37\nvalue = [35, 2]"] ;
177 -> 179 ;
180 [label="X[17] <= 8937.5\ngini = 0.248\nsamples = 600\nvalue = [513, 87]"] ;
172 -> 180 ;
181 [label="X[20] <= 7827.5\ngini = 0.2613\nsamples = 550\nvalue = [465, 85]"] ;
180 -> 181 ;
182 [label="X[15] <= 6613.0\ngini = 0.2484\nsamples = 516\nvalue = [441, 75]"] ;
181 -> 182 ;
183 [label="X[27] <= 3985.0\ngini = 0.2369\nsamples = 488\nvalue = [421, 67]"] ;
182 -> 183 ;
184 [label="X[4] <= 730.5\ngini = 0.3217\nsamples = 144\nvalue = [115, 29]"] ;
183 -> 184 ;
185 [label="X[25] <= 115.5\ngini = 0.226\nsamples = 77\nvalue = [67, 10]"] ;
184 -> 185 ;
186 [label="gini = 0.0526\nsamples = 37\nvalue = [36, 1]"] ;
185 -> 186 ;
187 [label="gini = 0.3488\nsamples = 40\nvalue = [31, 9]"] ;
185 -> 187 ;
188 [label="X[25] <= 129.0\ngini = 0.4063\nsamples = 67\nvalue = [48, 19]"] ;
184 -> 188 ;
189 [label="gini = 0.4978\nsamples = 30\nvalue = [16, 14]"] ;
188 -> 189 ;
190 [label="gini = 0.2337\nsamples = 37\nvalue = [32, 5]"] ;
188 -> 190 ;
191 [label="X[10] <= 87654.0\ngini = 0.1965\nsamples = 344\nvalue = [306, 38]"] ;
183 -> 191 ;
192 [label="X[10] <= 84208.5\ngini = 0.2417\nsamples = 256\nvalue = [220, 36]"] ;
191 -> 192 ;
193 [label="X[6] <= 220.5\ngini = 0.2055\nsamples = 215\nvalue = [190, 25]"] ;
192 -> 193 ;
194 [label="X[3] <= 4.5\ngini = 0.2702\nsamples = 118\nvalue = [99, 19]"] ;
193 -> 194 ;
195 [label="X[20] <= 5063.5\ngini = 0.1777\nsamples = 71\nvalue = [64, 7]"] ;
194 -> 195 ;
196 [label="gini = 0.3047\nsamples = 32\nvalue = [26, 6]"] ;
195 -> 196 ;
197 [label="gini = 0.05\nsamples = 39\nvalue = [38, 1]"] ;
195 -> 197 ;
198 [label="X[10] <= 71608.0\ngini = 0.3803\nsamples = 47\nvalue = [35, 12]"] ;
194 -> 198 ;
199 [label="gini = 0.4608\nsamples = 25\nvalue = [16, 9]"] ;
198 -> 199 ;
200 [label="gini = 0.2355\nsamples = 22\nvalue = [19, 3]"] ;
198 -> 200 ;
201 [label="X[29] <= 1292.5\ngini = 0.1161\nsamples = 97\nvalue = [91, 6]"] ;
193 -> 201 ;
202 [label="X[10] <= 74341.5\ngini = 0.0758\nsamples = 76\nvalue = [73, 3]"] ;
201 -> 202 ;
203 [label="gini = 0.149\nsamples = 37\nvalue = [34, 3]"] ;
202 -> 203 ;
204 [label="gini = 0.0\nsamples = 39\nvalue = [39, 0]"] ;
202 -> 204 ;
205 [label="gini = 0.2449\nsamples = 21\nvalue = [18, 3]"] ;
201 -> 205 ;
206 [label="gini = 0.3926\nsamples = 41\nvalue = [30, 11]"] ;
192 -> 206 ;
207 [label="X[24] <= 24.5\ngini = 0.0444\nsamples = 88\nvalue = [86, 2]"] ;
191 -> 207 ;
208 [label="gini = 0.1723\nsamples = 21\nvalue = [19, 2]"] ;
207 -> 208 ;
209 [label="gini = 0.0\nsamples = 67\nvalue = [67, 0]"] ;
207 -> 209 ;
210 [label="gini = 0.4082\nsamples = 28\nvalue = [20, 8]"] ;
182 -> 210 ;
211 [label="gini = 0.4152\nsamples = 34\nvalue = [24, 10]"] ;
181 -> 211 ;
212 [label="X[14] <= 4598.5\ngini = 0.0768\nsamples = 50\nvalue = [48, 2]"] ;
180 -> 212 ;
213 [label="gini = 0.1723\nsamples = 21\nvalue = [19, 2]"] ;
212 -> 213 ;
214 [label="gini = 0.0\nsamples = 29\nvalue = [29, 0]"] ;
212 -> 214 ;
215 [label="gini = 0.4281\nsamples = 29\nvalue = [20, 9]"] ;
171 -> 215 ;
216 [label="X[21] <= 21885.5\ngini = 0.1283\nsamples = 13413\nvalue = [12489, 924]"] ;
170 -> 216 ;
217 [label="X[24] <= 65.5\ngini = 0.127\nsamples = 13382\nvalue = [12470, 912]"] ;
216 -> 217 ;
218 [label="X[23] <= 1.0\ngini = 0.1337\nsamples = 12026\nvalue = [11160, 866]"] ;
217 -> 218 ;
219 [label="X[25] <= 130.0\ngini = 0.0386\nsamples = 457\nvalue = [448, 9]"] ;
218 -> 219 ;
220 [label="X[3] <= 22.5\ngini = 0.0145\nsamples = 274\nvalue = [272, 2]"] ;
219 -> 220 ;
221 [label="gini = 0.0\nsamples = 234\nvalue = [234, 0]"] ;
220 -> 221 ;
222 [label="gini = 0.095\nsamples = 40\nvalue = [38, 2]"] ;
220 -> 222 ;
223 [label="X[25] <= 137.5\ngini = 0.0736\nsamples = 183\nvalue = [176, 7]"] ;
219 -> 223 ;
224 [label="gini = 0.2311\nsamples = 30\nvalue = [26, 4]"] ;
223 -> 224 ;
225 [label="X[26] <= 2.5\ngini = 0.0384\nsamples = 153\nvalue = [150, 3]"] ;
223 -> 225 ;
226 [label="gini = 0.142\nsamples = 26\nvalue = [24, 2]"] ;
225 -> 226 ;
227 [label="X[29] <= 1504.5\ngini = 0.0156\nsamples = 127\nvalue = [126, 1]"] ;
225 -> 227 ;
228 [label="gini = 0.0\nsamples = 102\nvalue = [102, 0]"] ;
227 -> 228 ;
229 [label="gini = 0.0768\nsamples = 25\nvalue = [24, 1]"] ;
227 -> 229 ;
230 [label="X[25] <= 20.5\ngini = 0.1372\nsamples = 11569\nvalue = [10712, 857]"] ;
218 -> 230 ;
231 [label="X[19] <= 5338.0\ngini = 0.2086\nsamples = 617\nvalue = [544, 73]"] ;
230 -> 231 ;
232 [label="gini = 0.4383\nsamples = 37\nvalue = [25, 12]"] ;
231 -> 232 ;
233 [label="X[20] <= 10630.5\ngini = 0.1882\nsamples = 580\nvalue = [519, 61]"] ;
231 -> 233 ;
234 [label="X[17] <= 11491.0\ngini = 0.223\nsamples = 391\nvalue = [341, 50]"] ;
233 -> 234 ;
235 [label="X[10] <= 78106.5\ngini = 0.1718\nsamples = 316\nvalue = [286, 30]"] ;
234 -> 235 ;
236 [label="X[14] <= 4758.0\ngini = 0.1296\nsamples = 244\nvalue = [227, 17]"] ;
235 -> 236 ;
237 [label="gini = 0.3107\nsamples = 26\nvalue = [21, 5]"] ;
236 -> 237 ;
238 [label="X[7] <= 6.5\ngini = 0.104\nsamples = 218\nvalue = [206, 12]"] ;
236 -> 238 ;
239 [label="X[7] <= 3.0\ngini = 0.0535\nsamples = 109\nvalue = [106, 3]"] ;
238 -> 239 ;
240 [label="X[27] <= 6282.5\ngini = 0.0997\nsamples = 57\nvalue = [54, 3]"] ;
239 -> 240 ;
241 [label="gini = 0.0\nsamples = 27\nvalue = [27, 0]"] ;
240 -> 241 ;
242 [label="gini = 0.18\nsamples = 30\nvalue = [27, 3]"] ;
240 -> 242 ;
243 [label="gini = 0.0\nsamples = 52\nvalue = [52, 0]"] ;
239 -> 243 ;
244 [label="X[26] <= 25.5\ngini = 0.1515\nsamples = 109\nvalue = [100, 9]"] ;
238 -> 244 ;
245 [label="X[27] <= 6212.5\ngini = 0.0392\nsamples = 50\nvalue = [49, 1]"] ;
244 -> 245 ;
246 [label="gini = 0.0907\nsamples = 21\nvalue = [20, 1]"] ;
245 -> 246 ;
247 [label="gini = 0.0\nsamples = 29\nvalue = [29, 0]"] ;
245 -> 247 ;
248 [label="X[5] <= 54.5\ngini = 0.2344\nsamples = 59\nvalue = [51, 8]"] ;
244 -> 248 ;
249 [label="gini = 0.4082\nsamples = 21\nvalue = [15, 6]"] ;
248 -> 249 ;
250 [label="gini = 0.0997\nsamples = 38\nvalue = [36, 2]"] ;
248 -> 250 ;
251 [label="X[5] <= 60.0\ngini = 0.2959\nsamples = 72\nvalue = [59, 13]"] ;
235 -> 251 ;
252 [label="gini = 0.405\nsamples = 39\nvalue = [28, 11]"] ;
251 -> 252 ;
253 [label="gini = 0.1139\nsamples = 33\nvalue = [31, 2]"] ;
251 -> 253 ;
254 [label="X[17] <= 11930.0\ngini = 0.3911\nsamples = 75\nvalue = [55, 20]"] ;
234 -> 254 ;
255 [label="gini = 0.4915\nsamples = 23\nvalue = [13, 10]"] ;
254 -> 255 ;
256 [label="X[25] <= 17.5\ngini = 0.3107\nsamples = 52\nvalue = [42, 10]"] ;
254 -> 256 ;
257 [label="gini = 0.0868\nsamples = 22\nvalue = [21, 1]"] ;
256 -> 257 ;
258 [label="gini = 0.42\nsamples = 30\nvalue = [21, 9]"] ;
256 -> 258 ;
259 [label="X[5] <= 105.5\ngini = 0.1096\nsamples = 189\nvalue = [178, 11]"] ;
233 -> 259 ;
260 [label="X[27] <= 8887.5\ngini = 0.0693\nsamples = 167\nvalue = [161, 6]"] ;
259 -> 260 ;
261 [label="X[27] <= 6840.0\ngini = 0.0303\nsamples = 130\nvalue = [128, 2]"] ;
260 -> 261 ;
262 [label="gini = 0.1723\nsamples = 21\nvalue = [19, 2]"] ;
261 -> 262 ;
263 [label="gini = 0.0\nsamples = 109\nvalue = [109, 0]"] ;
261 -> 263 ;
264 [label="gini = 0.1928\nsamples = 37\nvalue = [33, 4]"] ;
260 -> 264 ;
265 [label="gini = 0.3512\nsamples = 22\nvalue = [17, 5]"] ;
259 -> 265 ;
266 [label="X[19] <= 11522.0\ngini = 0.1329\nsamples = 10952\nvalue = [10168, 784]"] ;
230 -> 266 ;
267 [label="X[27] <= 7067.5\ngini = 0.1272\nsamples = 9914\nvalue = [9237, 677]"] ;
266 -> 267 ;
268 [label="X[16] <= 12145.5\ngini = 0.1458\nsamples = 5686\nvalue = [5236, 450]"] ;
267 -> 268 ;
269 [label="X[10] <= 58864.5\ngini = 0.1428\nsamples = 5623\nvalue = [5188, 435]"] ;
268 -> 269 ;
270 [label="X[21] <= 8174.7656\ngini = 0.1008\nsamples = 1334\nvalue = [1263, 71]"] ;
269 -> 270 ;
271 [label="X[16] <= 4296.0\ngini = 0.0708\nsamples = 599\nvalue = [577, 22]"] ;
270 -> 271 ;
272 [label="X[20] <= 4699.5\ngini = 0.2098\nsamples = 42\nvalue = [37, 5]"] ;
271 -> 272 ;
273 [label="gini = 0.0907\nsamples = 21\nvalue = [20, 1]"] ;
272 -> 273 ;
274 [label="gini = 0.3084\nsamples = 21\nvalue = [17, 4]"] ;
272 -> 274 ;
275 [label="X[21] <= 7253.5\ngini = 0.0592\nsamples = 557\nvalue = [540, 17]"] ;
271 -> 275 ;
276 [label="X[19] <= 6092.0\ngini = 0.0868\nsamples = 308\nvalue = [294, 14]"] ;
275 -> 276 ;
277 [label="X[5] <= 108.5\ngini = 0.0575\nsamples = 270\nvalue = [262, 8]"] ;
276 -> 277 ;
278 [label="X[25] <= 167.5\ngini = 0.0354\nsamples = 222\nvalue = [218, 4]"] ;
277 -> 278 ;
279 [label="X[17] <= 5701.5\ngini = 0.0113\nsamples = 176\nvalue = [175, 1]"] ;
278 -> 279 ;
280 [label="gini = 0.0832\nsamples = 23\nvalue = [22, 1]"] ;
279 -> 280 ;
281 [label="gini = 0.0\nsamples = 153\nvalue = [153, 0]"] ;
279 -> 281 ;
282 [label="X[25] <= 192.5\ngini = 0.1219\nsamples = 46\nvalue = [43, 3]"] ;
278 -> 282 ;
283 [label="gini = 0.2268\nsamples = 23\nvalue = [20, 3]"] ;
282 -> 283 ;
284 [label="gini = 0.0\nsamples = 23\nvalue = [23, 0]"] ;
282 -> 284 ;
285 [label="X[15] <= 5221.5\ngini = 0.1528\nsamples = 48\nvalue = [44, 4]"] ;
277 -> 285 ;
286 [label="gini = 0.0\nsamples = 24\nvalue = [24, 0]"] ;
285 -> 286 ;
287 [label="gini = 0.2778\nsamples = 24\nvalue = [20, 4]"] ;
285 -> 287 ;
288 [label="gini = 0.2659\nsamples = 38\nvalue = [32, 6]"] ;
276 -> 288 ;
289 [label="X[24] <= 41.0\ngini = 0.0238\nsamples = 249\nvalue = [246, 3]"] ;
275 -> 289 ;
290 [label="X[14] <= 5462.0\ngini = 0.074\nsamples = 78\nvalue = [75, 3]"] ;
289 -> 290 ;
291 [label="gini = 0.0\nsamples = 52\nvalue = [52, 0]"] ;
290 -> 291 ;
292 [label="gini = 0.2041\nsamples = 26\nvalue = [23, 3]"] ;
290 -> 292 ;
293 [label="gini = 0.0\nsamples = 171\nvalue = [171, 0]"] ;
289 -> 293 ;
294 [label="X[21] <= 8473.5\ngini = 0.1244\nsamples = 735\nvalue = [686, 49]"] ;
270 -> 294 ;
295 [label="gini = 0.2887\nsamples = 40\nvalue = [33, 7]"] ;
294 -> 295 ;
296 [label="X[16] <= 5136.0\ngini = 0.1136\nsamples = 695\nvalue = [653, 42]"] ;
294 -> 296 ;
297 [label="gini = 0.3628\nsamples = 21\nvalue = [16, 5]"] ;
296 -> 297 ;
298 [label="X[16] <= 8148.0\ngini = 0.1038\nsamples = 674\nvalue = [637, 37]"] ;
296 -> 298 ;
299 [label="X[4] <= 590.5\ngini = 0.0501\nsamples = 272\nvalue = [265, 7]"] ;
298 -> 299 ;
300 [label="gini = 0.0\nsamples = 135\nvalue = [135, 0]"] ;
299 -> 300 ;
301 [label="X[6] <= 252.0\ngini = 0.097\nsamples = 137\nvalue = [130, 7]"] ;
299 -> 301 ;
302 [label="X[10] <= 43285.0\ngini = 0.0396\nsamples = 99\nvalue = [97, 2]"] ;
301 -> 302 ;
303 [label="gini = 0.1723\nsamples = 21\nvalue = [19, 2]"] ;
302 -> 303 ;
304 [label="gini = 0.0\nsamples = 78\nvalue = [78, 0]"] ;
302 -> 304 ;
305 [label="gini = 0.2285\nsamples = 38\nvalue = [33, 5]"] ;
301 -> 305 ;
306 [label="X[10] <= 41032.5\ngini = 0.1381\nsamples = 402\nvalue = [372, 30]"] ;
298 -> 306 ;
307 [label="X[3] <= 5.5\ngini = 0.2604\nsamples = 52\nvalue = [44, 8]"] ;
306 -> 307 ;
308 [label="gini = 0.3967\nsamples = 22\nvalue = [16, 6]"] ;
307 -> 308 ;
309 [label="gini = 0.1244\nsamples = 30\nvalue = [28, 2]"] ;
307 -> 309 ;
310 [label="X[14] <= 4748.5\ngini = 0.1178\nsamples = 350\nvalue = [328, 22]"] ;
306 -> 310 ;
311 [label="gini = 0.3299\nsamples = 24\nvalue = [19, 5]"] ;
310 -> 311 ;
312 [label="X[26] <= 31.5\ngini = 0.0989\nsamples = 326\nvalue = [309, 17]"] ;
310 -> 312 ;
313 [label="X[7] <= 3.0\ngini = 0.0632\nsamples = 245\nvalue = [237, 8]"] ;
312 -> 313 ;
314 [label="X[10] <= 54720.0\ngini = 0.142\nsamples = 78\nvalue = [72, 6]"] ;
313 -> 314 ;
315 [label="X[10] <= 49283.0\ngini = 0.0701\nsamples = 55\nvalue = [53, 2]"] ;
314 -> 315 ;
316 [label="gini = 0.1723\nsamples = 21\nvalue = [19, 2]"] ;
315 -> 316 ;
317 [label="gini = 0.0\nsamples = 34\nvalue = [34, 0]"] ;
315 -> 317 ;
318 [label="gini = 0.2873\nsamples = 23\nvalue = [19, 4]"] ;
314 -> 318 ;
319 [label="X[3] <= 3.5\ngini = 0.0237\nsamples = 167\nvalue = [165, 2]"] ;
313 -> 319 ;
320 [label="X[10] <= 53066.0\ngini = 0.0832\nsamples = 46\nvalue = [44, 2]"] ;
319 -> 320 ;
321 [label="gini = 0.0\nsamples = 25\nvalue = [25, 0]"] ;
320 -> 321 ;
322 [label="gini = 0.1723\nsamples = 21\nvalue = [19, 2]"] ;
320 -> 322 ;
323 [label="gini = 0.0\nsamples = 121\nvalue = [121, 0]"] ;
319 -> 323 ;
324 [label="X[5] <= 56.5\ngini = 0.1975\nsamples = 81\nvalue = [72, 9]"] ;
312 -> 324 ;
325 [label="X[7] <= 6.5\ngini = 0.3029\nsamples = 43\nvalue = [35, 8]"] ;
324 -> 325 ;
326 [label="gini = 0.0868\nsamples = 22\nvalue = [21, 1]"] ;
325 -> 326 ;
327 [label="gini = 0.4444\nsamples = 21\nvalue = [14, 7]"] ;
325 -> 327 ;
328 [label="gini = 0.0512\nsamples = 38\nvalue = [37, 1]"] ;
324 -> 328 ;
329 [label="X[5] <= 105.5\ngini = 0.1553\nsamples = 4289\nvalue = [3925, 364]"] ;
269 -> 329 ;
330 [label="X[25] <= 89.5\ngini = 0.1435\nsamples = 3689\nvalue = [3402, 287]"] ;
329 -> 330 ;
331 [label="X[7] <= 2.5\ngini = 0.1165\nsamples = 1514\nvalue = [1420, 94]"] ;
330 -> 331 ;
332 [label="X[6] <= 231.0\ngini = 0.184\nsamples = 400\nvalue = [359, 41]"] ;
331 -> 332 ;
333 [label="X[27] <= 5030.0\ngini = 0.265\nsamples = 159\nvalue = [134, 25]"] ;
332 -> 333 ;
334 [label="gini = 0.4281\nsamples = 29\nvalue = [20, 9]"] ;
333 -> 334 ;
335 [label="X[10] <= 68666.5\ngini = 0.2159\nsamples = 130\nvalue = [114, 16]"] ;
333 -> 335 ;
336 [label="X[5] <= 22.5\ngini = 0.32\nsamples = 55\nvalue = [44, 11]"] ;
335 -> 336 ;
337 [label="gini = 0.4717\nsamples = 21\nvalue = [13, 8]"] ;
336 -> 337 ;
338 [label="gini = 0.1609\nsamples = 34\nvalue = [31, 3]"] ;
336 -> 338 ;
339 [label="X[29] <= 828.0\ngini = 0.1244\nsamples = 75\nvalue = [70, 5]"] ;
335 -> 339 ;
340 [label="gini = 0.2778\nsamples = 30\nvalue = [25, 5]"] ;
339 -> 340 ;
341 [label="gini = 0.0\nsamples = 45\nvalue = [45, 0]"] ;
339 -> 341 ;
342 [label="X[16] <= 8582.0\ngini = 0.124\nsamples = 241\nvalue = [225, 16]"] ;
332 -> 342 ;
343 [label="X[20] <= 6090.0\ngini = 0.0544\nsamples = 143\nvalue = [139, 4]"] ;
342 -> 343 ;
344 [label="gini = 0.18\nsamples = 30\nvalue = [27, 3]"] ;
343 -> 344 ;
345 [label="X[21] <= 10391.0\ngini = 0.0175\nsamples = 113\nvalue = [112, 1]"] ;
343 -> 345 ;
346 [label="gini = 0.0\nsamples = 92\nvalue = [92, 0]"] ;
345 -> 346 ;
347 [label="gini = 0.0907\nsamples = 21\nvalue = [20, 1]"] ;
345 -> 347 ;
348 [label="X[27] <= 6025.0\ngini = 0.2149\nsamples = 98\nvalue = [86, 12]"] ;
342 -> 348 ;
349 [label="gini = 0.4082\nsamples = 21\nvalue = [15, 6]"] ;
348 -> 349 ;
350 [label="X[29] <= 1010.5\ngini = 0.1437\nsamples = 77\nvalue = [71, 6]"] ;
348 -> 350 ;
351 [label="gini = 0.3018\nsamples = 27\nvalue = [22, 5]"] ;
350 -> 351 ;
352 [label="X[17] <= 11833.0\ngini = 0.0392\nsamples = 50\nvalue = [49, 1]"] ;
350 -> 352 ;
353 [label="gini = 0.0\nsamples = 29\nvalue = [29, 0]"] ;
352 -> 353 ;
354 [label="gini = 0.0907\nsamples = 21\nvalue = [20, 1]"] ;
352 -> 354 ;
355 [label="X[16] <= 9225.5\ngini = 0.0906\nsamples = 1114\nvalue = [1061, 53]"] ;
331 -> 355 ;
356 [label="X[16] <= 4462.0\ngini = 0.0683\nsamples = 848\nvalue = [818, 30]"] ;
355 -> 356 ;
357 [label="gini = 0.2706\nsamples = 31\nvalue = [26, 5]"] ;
356 -> 357 ;
358 [label="X[6] <= 209.0\ngini = 0.0593\nsamples = 817\nvalue = [792, 25]"] ;
356 -> 358 ;
359 [label="X[18] <= 4144.0\ngini = 0.0176\nsamples = 337\nvalue = [334, 3]"] ;
358 -> 359 ;
360 [label="X[1] <= 2005.5\ngini = 0.0832\nsamples = 46\nvalue = [44, 2]"] ;
359 -> 360 ;
361 [label="gini = 0.0\nsamples = 25\nvalue = [25, 0]"] ;
360 -> 361 ;
362 [label="gini = 0.1723\nsamples = 21\nvalue = [19, 2]"] ;
360 -> 362 ;
363 [label="X[21] <= 10373.0\ngini = 0.0068\nsamples = 291\nvalue = [290, 1]"] ;
359 -> 363 ;
364 [label="gini = 0.0\nsamples = 263\nvalue = [263, 0]"] ;
363 -> 364 ;
365 [label="gini = 0.0689\nsamples = 28\nvalue = [27, 1]"] ;
363 -> 365 ;
366 [label="X[6] <= 243.5\ngini = 0.0875\nsamples = 480\nvalue = [458, 22]"] ;
358 -> 366 ;
367 [label="gini = 0.2188\nsamples = 40\nvalue = [35, 5]"] ;
366 -> 367 ;
368 [label="X[20] <= 8128.5\ngini = 0.0743\nsamples = 440\nvalue = [423, 17]"] ;
366 -> 368 ;
369 [label="X[16] <= 7663.0\ngini = 0.1049\nsamples = 288\nvalue = [272, 16]"] ;
368 -> 369 ;
370 [label="X[29] <= 1733.0\ngini = 0.0677\nsamples = 228\nvalue = [220, 8]"] ;
369 -> 370 ;
371 [label="X[21] <= 8191.0\ngini = 0.0487\nsamples = 200\nvalue = [195, 5]"] ;
370 -> 371 ;
372 [label="gini = 0.0\nsamples = 108\nvalue = [108, 0]"] ;
371 -> 372 ;
373 [label="X[16] <= 6713.5\ngini = 0.1028\nsamples = 92\nvalue = [87, 5]"] ;
371 -> 373 ;
374 [label="gini = 0.2188\nsamples = 32\nvalue = [28, 4]"] ;
373 -> 374 ;
375 [label="X[20] <= 7374.0\ngini = 0.0328\nsamples = 60\nvalue = [59, 1]"] ;
373 -> 375 ;
376 [label="gini = 0.0\nsamples = 39\nvalue = [39, 0]"] ;
375 -> 376 ;
377 [label="gini = 0.0907\nsamples = 21\nvalue = [20, 1]"] ;
375 -> 377 ;
378 [label="gini = 0.1913\nsamples = 28\nvalue = [25, 3]"] ;
370 -> 378 ;
379 [label="X[26] <= 8.5\ngini = 0.2311\nsamples = 60\nvalue = [52, 8]"] ;
369 -> 379 ;
380 [label="gini = 0.3457\nsamples = 36\nvalue = [28, 8]"] ;
379 -> 380 ;
381 [label="gini = 0.0\nsamples = 24\nvalue = [24, 0]"] ;
379 -> 381 ;
382 [label="X[10] <= 85948.5\ngini = 0.0131\nsamples = 152\nvalue = [151, 1]"] ;
368 -> 382 ;
383 [label="gini = 0.0\nsamples = 131\nvalue = [131, 0]"] ;
382 -> 383 ;
384 [label="gini = 0.0907\nsamples = 21\nvalue = [20, 1]"] ;
382 -> 384 ;
385 [label="X[7] <= 12.5\ngini = 0.158\nsamples = 266\nvalue = [243, 23]"] ;
355 -> 385 ;
386 [label="X[25] <= 33.0\ngini = 0.0364\nsamples = 108\nvalue = [106, 2]"] ;
385 -> 386 ;
387 [label="gini = 0.1207\nsamples = 31\nvalue = [29, 2]"] ;
386 -> 387 ;
388 [label="gini = 0.0\nsamples = 77\nvalue = [77, 0]"] ;
386 -> 388 ;
389 [label="X[18] <= 6118.5\ngini = 0.2305\nsamples = 158\nvalue = [137, 21]"] ;
385 -> 389 ;
390 [label="X[16] <= 9548.0\ngini = 0.0677\nsamples = 57\nvalue = [55, 2]"] ;
389 -> 390 ;
391 [label="gini = 0.1723\nsamples = 21\nvalue = [19, 2]"] ;
390 -> 391 ;
392 [label="gini = 0.0\nsamples = 36\nvalue = [36, 0]"] ;
390 -> 392 ;
393 [label="X[21] <= 11357.0\ngini = 0.3055\nsamples = 101\nvalue = [82, 19]"] ;
389 -> 393 ;
394 [label="gini = 0.4512\nsamples = 32\nvalue = [21, 11]"] ;
393 -> 394 ;
395 [label="X[27] <= 6697.5\ngini = 0.205\nsamples = 69\nvalue = [61, 8]"] ;
393 -> 395 ;
396 [label="gini = 0.32\nsamples = 35\nvalue = [28, 7]"] ;
395 -> 396 ;
397 [label="gini = 0.0571\nsamples = 34\nvalue = [33, 1]"] ;
395 -> 397 ;
398 [label="X[18] <= 6523.5\ngini = 0.1617\nsamples = 2175\nvalue = [1982, 193]"] ;
330 -> 398 ;
399 [label="X[20] <= 10397.5\ngini = 0.1799\nsamples = 1571\nvalue = [1414, 157]"] ;
398 -> 399 ;
400 [label="X[14] <= 3845.5\ngini = 0.1745\nsamples = 1543\nvalue = [1394, 149]"] ;
399 -> 400 ;
401 [label="X[27] <= 4732.5\ngini = 0.0384\nsamples = 102\nvalue = [100, 2]"] ;
400 -> 401 ;
402 [label="gini = 0.1588\nsamples = 23\nvalue = [21, 2]"] ;
401 -> 402 ;
403 [label="gini = 0.0\nsamples = 79\nvalue = [79, 0]"] ;
401 -> 403 ;
404 [label="X[17] <= 10936.0\ngini = 0.1832\nsamples = 1441\nvalue = [1294, 147]"] ;
400 -> 404 ;
405 [label="X[25] <= 121.5\ngini = 0.1966\nsamples = 1240\nvalue = [1103, 137]"] ;
404 -> 405 ;
406 [label="X[4] <= 706.5\ngini = 0.2778\nsamples = 204\nvalue = [170, 34]"] ;
405 -> 406 ;
407 [label="X[16] <= 8374.5\ngini = 0.168\nsamples = 108\nvalue = [98, 10]"] ;
406 -> 407 ;
408 [label="X[29] <= 1392.0\ngini = 0.1132\nsamples = 83\nvalue = [78, 5]"] ;
407 -> 408 ;
409 [label="gini = 0.0\nsamples = 41\nvalue = [41, 0]"] ;
408 -> 409 ;
410 [label="X[17] <= 7926.5\ngini = 0.2098\nsamples = 42\nvalue = [37, 5]"] ;
408 -> 410 ;
411 [label="gini = 0.2449\nsamples = 21\nvalue = [18, 3]"] ;
410 -> 411 ;
412 [label="gini = 0.1723\nsamples = 21\nvalue = [19, 2]"] ;
410 -> 412 ;
413 [label="gini = 0.32\nsamples = 25\nvalue = [20, 5]"] ;
407 -> 413 ;
414 [label="X[24] <= 56.0\ngini = 0.375\nsamples = 96\nvalue = [72, 24]"] ;
406 -> 414 ;
415 [label="X[20] <= 8142.5\ngini = 0.4377\nsamples = 68\nvalue = [46, 22]"] ;
414 -> 415 ;
416 [label="X[18] <= 4581.0\ngini = 0.3628\nsamples = 42\nvalue = [32, 10]"] ;
415 -> 416 ;
417 [label="gini = 0.4444\nsamples = 21\nvalue = [14, 7]"] ;
416 -> 417 ;
418 [label="gini = 0.2449\nsamples = 21\nvalue = [18, 3]"] ;
416 -> 418 ;
419 [label="gini = 0.497\nsamples = 26\nvalue = [14, 12]"] ;
415 -> 419 ;
420 [label="gini = 0.1327\nsamples = 28\nvalue = [26, 2]"] ;
414 -> 420 ;
421 [label="X[16] <= 9189.0\ngini = 0.1791\nsamples = 1036\nvalue = [933, 103]"] ;
405 -> 421 ;
422 [label="X[17] <= 9758.5\ngini = 0.1679\nsamples = 962\nvalue = [873, 89]"] ;
421 -> 422 ;
423 [label="X[17] <= 9587.5\ngini = 0.181\nsamples = 825\nvalue = [742, 83]"] ;
422 -> 423 ;
424 [label="X[14] <= 5631.5\ngini = 0.1735\nsamples = 792\nvalue = [716, 76]"] ;
423 -> 424 ;
425 [label="X[18] <= 4872.5\ngini = 0.1554\nsamples = 624\nvalue = [571, 53]"] ;
424 -> 425 ;
426 [label="X[7] <= 13.5\ngini = 0.2019\nsamples = 351\nvalue = [311, 40]"] ;
425 -> 426 ;
427 [label="X[26] <= 2.5\ngini = 0.1554\nsamples = 212\nvalue = [194, 18]"] ;
426 -> 427 ;
428 [label="gini = 0.0\nsamples = 47\nvalue = [47, 0]"] ;
427 -> 428 ;
429 [label="X[24] <= 38.5\ngini = 0.1944\nsamples = 165\nvalue = [147, 18]"] ;
427 -> 429 ;
430 [label="X[20] <= 7372.0\ngini = 0.32\nsamples = 45\nvalue = [36, 9]"] ;
429 -> 430 ;
431 [label="gini = 0.2188\nsamples = 24\nvalue = [21, 3]"] ;
430 -> 431 ;
432 [label="gini = 0.4082\nsamples = 21\nvalue = [15, 6]"] ;
430 -> 432 ;
433 [label="X[20] <= 7146.5\ngini = 0.1388\nsamples = 120\nvalue = [111, 9]"] ;
429 -> 433 ;
434 [label="X[19] <= 5606.0\ngini = 0.2515\nsamples = 61\nvalue = [52, 9]"] ;
433 -> 434 ;
435 [label="gini = 0.0713\nsamples = 27\nvalue = [26, 1]"] ;
434 -> 435 ;
436 [label="gini = 0.3599\nsamples = 34\nvalue = [26, 8]"] ;
434 -> 436 ;
437 [label="gini = 0.0\nsamples = 59\nvalue = [59, 0]"] ;
433 -> 437 ;
438 [label="X[29] <= 1455.5\ngini = 0.2664\nsamples = 139\nvalue = [117, 22]"] ;
426 -> 438 ;
439 [label="X[25] <= 152.5\ngini = 0.3367\nsamples = 98\nvalue = [77, 21]"] ;
438 -> 439 ;
440 [label="X[29] <= 951.5\ngini = 0.1938\nsamples = 46\nvalue = [41, 5]"] ;
439 -> 440 ;
441 [label="gini = 0.0768\nsamples = 25\nvalue = [24, 1]"] ;
440 -> 441 ;
442 [label="gini = 0.3084\nsamples = 21\nvalue = [17, 4]"] ;
440 -> 442 ;
443 [label="X[18] <= 4230.5\ngini = 0.426\nsamples = 52\nvalue = [36, 16]"] ;
439 -> 443 ;
444 [label="gini = 0.2449\nsamples = 21\nvalue = [18, 3]"] ;
443 -> 444 ;
445 [label="gini = 0.487\nsamples = 31\nvalue = [18, 13]"] ;
443 -> 445 ;
446 [label="gini = 0.0476\nsamples = 41\nvalue = [40, 1]"] ;
438 -> 446 ;
447 [label="X[25] <= 125.5\ngini = 0.0907\nsamples = 273\nvalue = [260, 13]"] ;
425 -> 447 ;
448 [label="gini = 0.2637\nsamples = 32\nvalue = [27, 5]"] ;
447 -> 448 ;
449 [label="X[7] <= 13.5\ngini = 0.0642\nsamples = 241\nvalue = [233, 8]"] ;
447 -> 449 ;
450 [label="X[26] <= 2.5\ngini = 0.1107\nsamples = 136\nvalue = [128, 8]"] ;
449 -> 450 ;
451 [label="gini = 0.2873\nsamples = 23\nvalue = [19, 4]"] ;
450 -> 451 ;
452 [label="X[15] <= 6323.0\ngini = 0.0683\nsamples = 113\nvalue = [109, 4]"] ;
450 -> 452 ;
453 [label="gini = 0.0\nsamples = 52\nvalue = [52, 0]"] ;
452 -> 453 ;
454 [label="X[20] <= 6468.0\ngini = 0.1225\nsamples = 61\nvalue = [57, 4]"] ;
452 -> 454 ;
455 [label="gini = 0.2449\nsamples = 21\nvalue = [18, 3]"] ;
454 -> 455 ;
456 [label="gini = 0.0487\nsamples = 40\nvalue = [39, 1]"] ;
454 -> 456 ;
457 [label="gini = 0.0\nsamples = 105\nvalue = [105, 0]"] ;
449 -> 457 ;
458 [label="X[14] <= 5843.5\ngini = 0.2363\nsamples = 168\nvalue = [145, 23]"] ;
424 -> 458 ;
459 [label="X[18] <= 5659.5\ngini = 0.3967\nsamples = 44\nvalue = [32, 12]"] ;
458 -> 459 ;
460 [label="gini = 0.2449\nsamples = 21\nvalue = [18, 3]"] ;
459 -> 460 ;
461 [label="gini = 0.4764\nsamples = 23\nvalue = [14, 9]"] ;
459 -> 461 ;
462 [label="X[27] <= 6712.5\ngini = 0.1617\nsamples = 124\nvalue = [113, 11]"] ;
458 -> 462 ;
463 [label="X[14] <= 6428.0\ngini = 0.1097\nsamples = 103\nvalue = [97, 6]"] ;
462 -> 463 ;
464 [label="X[25] <= 146.5\ngini = 0.0476\nsamples = 82\nvalue = [80, 2]"] ;
463 -> 464 ;
465 [label="gini = 0.1588\nsamples = 23\nvalue = [21, 2]"] ;
464 -> 465 ;
466 [label="gini = 0.0\nsamples = 59\nvalue = [59, 0]"] ;
464 -> 466 ;
467 [label="gini = 0.3084\nsamples = 21\nvalue = [17, 4]"] ;
463 -> 467 ;
468 [label="gini = 0.3628\nsamples = 21\nvalue = [16, 5]"] ;
462 -> 468 ;
469 [label="gini = 0.3343\nsamples = 33\nvalue = [26, 7]"] ;
423 -> 469 ;
470 [label="X[7] <= 8.0\ngini = 0.0838\nsamples = 137\nvalue = [131, 6]"] ;
422 -> 470 ;
471 [label="X[27] <= 5890.0\ngini = 0.1588\nsamples = 69\nvalue = [63, 6]"] ;
470 -> 471 ;
472 [label="X[14] <= 5269.0\ngini = 0.2401\nsamples = 43\nvalue = [37, 6]"] ;
471 -> 472 ;
473 [label="gini = 0.0\nsamples = 21\nvalue = [21, 0]"] ;
472 -> 473 ;
474 [label="gini = 0.3967\nsamples = 22\nvalue = [16, 6]"] ;
472 -> 474 ;
475 [label="gini = 0.0\nsamples = 26\nvalue = [26, 0]"] ;
471 -> 475 ;
476 [label="gini = 0.0\nsamples = 68\nvalue = [68, 0]"] ;
470 -> 476 ;
477 [label="X[16] <= 9344.0\ngini = 0.3068\nsamples = 74\nvalue = [60, 14]"] ;
421 -> 477 ;
478 [label="gini = 0.4628\nsamples = 22\nvalue = [14, 8]"] ;
477 -> 478 ;
479 [label="X[10] <= 73112.5\ngini = 0.2041\nsamples = 52\nvalue = [46, 6]"] ;
477 -> 479 ;
480 [label="gini = 0.3122\nsamples = 31\nvalue = [25, 6]"] ;
479 -> 480 ;
481 [label="gini = 0.0\nsamples = 21\nvalue = [21, 0]"] ;
479 -> 481 ;
482 [label="X[29] <= 1668.0\ngini = 0.0946\nsamples = 201\nvalue = [191, 10]"] ;
404 -> 482 ;
483 [label="X[14] <= 5832.0\ngini = 0.0408\nsamples = 144\nvalue = [141, 3]"] ;
482 -> 483 ;
484 [label="gini = 0.1723\nsamples = 21\nvalue = [19, 2]"] ;
483 -> 484 ;
485 [label="X[25] <= 184.5\ngini = 0.0161\nsamples = 123\nvalue = [122, 1]"] ;
483 -> 485 ;
486 [label="gini = 0.0\nsamples = 102\nvalue = [102, 0]"] ;
485 -> 486 ;
487 [label="gini = 0.0907\nsamples = 21\nvalue = [20, 1]"] ;
485 -> 487 ;
488 [label="X[25] <= 152.5\ngini = 0.2155\nsamples = 57\nvalue = [50, 7]"] ;
482 -> 488 ;
489 [label="gini = 0.0\nsamples = 28\nvalue = [28, 0]"] ;
488 -> 489 ;
490 [label="gini = 0.3662\nsamples = 29\nvalue = [22, 7]"] ;
488 -> 490 ;
491 [label="gini = 0.4082\nsamples = 28\nvalue = [20, 8]"] ;
399 -> 491 ;
492 [label="X[12] <= 8.5\ngini = 0.1121\nsamples = 604\nvalue = [568, 36]"] ;
398 -> 492 ;
493 [label="X[19] <= 8370.0\ngini = 0.1361\nsamples = 490\nvalue = [454, 36]"] ;
492 -> 493 ;
494 [label="X[16] <= 10561.5\ngini = 0.0647\nsamples = 209\nvalue = [202, 7]"] ;
493 -> 494 ;
495 [label="X[21] <= 9300.0\ngini = 0.0442\nsamples = 177\nvalue = [173, 4]"] ;
494 -> 495 ;
496 [label="X[26] <= 14.5\ngini = 0.1107\nsamples = 68\nvalue = [64, 4]"] ;
495 -> 496 ;
497 [label="gini = 0.0\nsamples = 40\nvalue = [40, 0]"] ;
496 -> 497 ;
498 [label="gini = 0.2449\nsamples = 28\nvalue = [24, 4]"] ;
496 -> 498 ;
499 [label="gini = 0.0\nsamples = 109\nvalue = [109, 0]"] ;
495 -> 499 ;
500 [label="gini = 0.1699\nsamples = 32\nvalue = [29, 3]"] ;
494 -> 500 ;
501 [label="X[14] <= 7627.5\ngini = 0.1851\nsamples = 281\nvalue = [252, 29]"] ;
493 -> 501 ;
502 [label="X[15] <= 8684.5\ngini = 0.2352\nsamples = 191\nvalue = [165, 26]"] ;
501 -> 502 ;
503 [label="X[4] <= 761.0\ngini = 0.1642\nsamples = 133\nvalue = [121, 12]"] ;
502 -> 503 ;
504 [label="X[10] <= 74232.5\ngini = 0.1049\nsamples = 108\nvalue = [102, 6]"] ;
503 -> 504 ;
505 [label="X[19] <= 8679.0\ngini = 0.1901\nsamples = 47\nvalue = [42, 5]"] ;
504 -> 505 ;
506 [label="gini = 0.32\nsamples = 25\nvalue = [20, 5]"] ;
505 -> 506 ;
507 [label="gini = 0.0\nsamples = 22\nvalue = [22, 0]"] ;
505 -> 507 ;
508 [label="X[18] <= 7569.0\ngini = 0.0322\nsamples = 61\nvalue = [60, 1]"] ;
504 -> 508 ;
509 [label="gini = 0.0\nsamples = 40\nvalue = [40, 0]"] ;
508 -> 509 ;
510 [label="gini = 0.0907\nsamples = 21\nvalue = [20, 1]"] ;
508 -> 510 ;
511 [label="gini = 0.3648\nsamples = 25\nvalue = [19, 6]"] ;
503 -> 511 ;
512 [label="X[6] <= 269.0\ngini = 0.3662\nsamples = 58\nvalue = [44, 14]"] ;
502 -> 512 ;
513 [label="gini = 0.2188\nsamples = 24\nvalue = [21, 3]"] ;
512 -> 513 ;
514 [label="gini = 0.4377\nsamples = 34\nvalue = [23, 11]"] ;
512 -> 514 ;
515 [label="X[24] <= 41.0\ngini = 0.0644\nsamples = 90\nvalue = [87, 3]"] ;
501 -> 515 ;
516 [label="gini = 0.1699\nsamples = 32\nvalue = [29, 3]"] ;
515 -> 516 ;
517 [label="gini = 0.0\nsamples = 58\nvalue = [58, 0]"] ;
515 -> 517 ;
518 [label="gini = 0.0\nsamples = 114\nvalue = [114, 0]"] ;
492 -> 518 ;
519 [label="X[24] <= 19.5\ngini = 0.2237\nsamples = 600\nvalue = [523, 77]"] ;
329 -> 519 ;
520 [label="gini = 0.4444\nsamples = 30\nvalue = [20, 10]"] ;
519 -> 520 ;
521 [label="X[20] <= 7383.5\ngini = 0.2075\nsamples = 570\nvalue = [503, 67]"] ;
519 -> 521 ;
522 [label="X[16] <= 7220.0\ngini = 0.2754\nsamples = 188\nvalue = [157, 31]"] ;
521 -> 522 ;
523 [label="X[27] <= 6037.5\ngini = 0.2245\nsamples = 163\nvalue = [142, 21]"] ;
522 -> 523 ;
524 [label="X[27] <= 5407.5\ngini = 0.1777\nsamples = 142\nvalue = [128, 14]"] ;
523 -> 524 ;
525 [label="X[7] <= 13.5\ngini = 0.2472\nsamples = 90\nvalue = [77, 13]"] ;
524 -> 525 ;
526 [label="X[14] <= 4510.0\ngini = 0.1107\nsamples = 51\nvalue = [48, 3]"] ;
525 -> 526 ;
527 [label="gini = 0.0\nsamples = 30\nvalue = [30, 0]"] ;
526 -> 527 ;
528 [label="gini = 0.2449\nsamples = 21\nvalue = [18, 3]"] ;
526 -> 528 ;
529 [label="gini = 0.3813\nsamples = 39\nvalue = [29, 10]"] ;
525 -> 529 ;
530 [label="X[10] <= 65537.0\ngini = 0.0377\nsamples = 52\nvalue = [51, 1]"] ;
524 -> 530 ;
531 [label="gini = 0.0907\nsamples = 21\nvalue = [20, 1]"] ;
530 -> 531 ;
532 [label="gini = 0.0\nsamples = 31\nvalue = [31, 0]"] ;
530 -> 532 ;
533 [label="gini = 0.4444\nsamples = 21\nvalue = [14, 7]"] ;
523 -> 533 ;
534 [label="gini = 0.48\nsamples = 25\nvalue = [15, 10]"] ;
522 -> 534 ;
535 [label="X[20] <= 8223.0\ngini = 0.1707\nsamples = 382\nvalue = [346, 36]"] ;
521 -> 535 ;
536 [label="X[16] <= 8193.5\ngini = 0.0695\nsamples = 111\nvalue = [107, 4]"] ;
535 -> 536 ;
537 [label="gini = 0.0\nsamples = 67\nvalue = [67, 0]"] ;
536 -> 537 ;
538 [label="X[15] <= 5996.5\ngini = 0.1653\nsamples = 44\nvalue = [40, 4]"] ;
536 -> 538 ;
539 [label="gini = 0.3084\nsamples = 21\nvalue = [17, 4]"] ;
538 -> 539 ;
540 [label="gini = 0.0\nsamples = 23\nvalue = [23, 0]"] ;
538 -> 540 ;
541 [label="X[20] <= 8659.5\ngini = 0.2083\nsamples = 271\nvalue = [239, 32]"] ;
535 -> 541 ;
542 [label="X[18] <= 4898.0\ngini = 0.3172\nsamples = 86\nvalue = [69, 17]"] ;
541 -> 542 ;
543 [label="gini = 0.1356\nsamples = 41\nvalue = [38, 3]"] ;
542 -> 543 ;
544 [label="X[4] <= 695.0\ngini = 0.4286\nsamples = 45\nvalue = [31, 14]"] ;
542 -> 544 ;
545 [label="gini = 0.2975\nsamples = 22\nvalue = [18, 4]"] ;
544 -> 545 ;
546 [label="gini = 0.4915\nsamples = 23\nvalue = [13, 10]"] ;
544 -> 546 ;
547 [label="X[10] <= 73951.5\ngini = 0.149\nsamples = 185\nvalue = [170, 15]"] ;
541 -> 547 ;
548 [label="X[25] <= 40.5\ngini = 0.0233\nsamples = 85\nvalue = [84, 1]"] ;
547 -> 548 ;
549 [label="gini = 0.0868\nsamples = 22\nvalue = [21, 1]"] ;
548 -> 549 ;
550 [label="gini = 0.0\nsamples = 63\nvalue = [63, 0]"] ;
548 -> 550 ;
551 [label="X[26] <= 26.5\ngini = 0.2408\nsamples = 100\nvalue = [86, 14]"] ;
547 -> 551 ;
552 [label="X[25] <= 43.5\ngini = 0.1207\nsamples = 62\nvalue = [58, 4]"] ;
551 -> 552 ;
553 [label="gini = 0.2449\nsamples = 21\nvalue = [18, 3]"] ;
552 -> 553 ;
554 [label="gini = 0.0476\nsamples = 41\nvalue = [40, 1]"] ;
552 -> 554 ;
555 [label="gini = 0.3878\nsamples = 38\nvalue = [28, 10]"] ;
551 -> 555 ;
556 [label="X[17] <= 14220.0\ngini = 0.3628\nsamples = 63\nvalue = [48, 15]"] ;
268 -> 556 ;
557 [label="gini = 0.4959\nsamples = 22\nvalue = [12, 10]"] ;
556 -> 557 ;
558 [label="gini = 0.2142\nsamples = 41\nvalue = [36, 5]"] ;
556 -> 558 ;
559 [label="X[1] <= 2005.5\ngini = 0.1016\nsamples = 4228\nvalue = [4001, 227]"] ;
267 -> 559 ;
560 [label="X[18] <= 9823.1914\ngini = 0.1564\nsamples = 924\nvalue = [845, 79]"] ;
559 -> 560 ;
561 [label="X[25] <= 123.5\ngini = 0.1456\nsamples = 898\nvalue = [827, 71]"] ;
560 -> 561 ;
562 [label="X[6] <= 771.0\ngini = 0.1056\nsamples = 447\nvalue = [422, 25]"] ;
561 -> 562 ;
563 [label="X[25] <= 30.5\ngini = 0.0818\nsamples = 398\nvalue = [381, 17]"] ;
562 -> 563 ;
564 [label="X[7] <= 6.5\ngini = 0.1952\nsamples = 73\nvalue = [65, 8]"] ;
563 -> 564 ;
565 [label="X[10] <= 73652.0\ngini = 0.3029\nsamples = 43\nvalue = [35, 8]"] ;
564 -> 565 ;
566 [label="gini = 0.1723\nsamples = 21\nvalue = [19, 2]"] ;
565 -> 566 ;
567 [label="gini = 0.3967\nsamples = 22\nvalue = [16, 6]"] ;
565 -> 567 ;
568 [label="gini = 0.0\nsamples = 30\nvalue = [30, 0]"] ;
564 -> 568 ;
569 [label="X[4] <= 328.5\ngini = 0.0539\nsamples = 325\nvalue = [316, 9]"] ;
563 -> 569 ;
570 [label="gini = 0.0\nsamples = 115\nvalue = [115, 0]"] ;
569 -> 570 ;
571 [label="X[4] <= 342.5\ngini = 0.082\nsamples = 210\nvalue = [201, 9]"] ;
569 -> 571 ;
572 [label="gini = 0.2449\nsamples = 21\nvalue = [18, 3]"] ;
571 -> 572 ;
573 [label="X[18] <= 7687.0\ngini = 0.0615\nsamples = 189\nvalue = [183, 6]"] ;
571 -> 573 ;
574 [label="X[4] <= 1001.5\ngini = 0.0169\nsamples = 117\nvalue = [116, 1]"] ;
573 -> 574 ;
575 [label="gini = 0.0\nsamples = 96\nvalue = [96, 0]"] ;
574 -> 575 ;
576 [label="gini = 0.0907\nsamples = 21\nvalue = [20, 1]"] ;
574 -> 576 ;
577 [label="X[25] <= 69.5\ngini = 0.1292\nsamples = 72\nvalue = [67, 5]"] ;
573 -> 577 ;
578 [label="X[21] <= 11193.0\ngini = 0.0754\nsamples = 51\nvalue = [49, 2]"] ;
577 -> 578 ;
579 [label="gini = 0.1723\nsamples = 21\nvalue = [19, 2]"] ;
578 -> 579 ;
580 [label="gini = 0.0\nsamples = 30\nvalue = [30, 0]"] ;
578 -> 580 ;
581 [label="gini = 0.2449\nsamples = 21\nvalue = [18, 3]"] ;
577 -> 581 ;
582 [label="X[21] <= 11284.0\ngini = 0.2732\nsamples = 49\nvalue = [41, 8]"] ;
562 -> 582 ;
583 [label="gini = 0.4082\nsamples = 21\nvalue = [15, 6]"] ;
582 -> 583 ;
584 [label="gini = 0.1327\nsamples = 28\nvalue = [26, 2]"] ;
582 -> 584 ;
585 [label="X[29] <= 678.5\ngini = 0.1832\nsamples = 451\nvalue = [405, 46]"] ;
561 -> 585 ;
586 [label="gini = 0.3615\nsamples = 38\nvalue = [29, 9]"] ;
585 -> 586 ;
587 [label="X[12] <= 2.5\ngini = 0.1631\nsamples = 413\nvalue = [376, 37]"] ;
585 -> 587 ;
588 [label="X[21] <= 10993.5\ngini = 0.2659\nsamples = 76\nvalue = [64, 12]"] ;
587 -> 588 ;
589 [label="X[24] <= 53.0\ngini = 0.168\nsamples = 54\nvalue = [49, 5]"] ;
588 -> 589 ;
590 [label="gini = 0.0713\nsamples = 27\nvalue = [26, 1]"] ;
589 -> 590 ;
591 [label="gini = 0.2524\nsamples = 27\nvalue = [23, 4]"] ;
589 -> 591 ;
592 [label="gini = 0.4339\nsamples = 22\nvalue = [15, 7]"] ;
588 -> 592 ;
593 [label="X[25] <= 179.0\ngini = 0.1374\nsamples = 337\nvalue = [312, 25]"] ;
587 -> 593 ;
594 [label="X[25] <= 127.0\ngini = 0.1095\nsamples = 258\nvalue = [243, 15]"] ;
593 -> 594 ;
595 [label="X[4] <= 416.0\ngini = 0.2449\nsamples = 49\nvalue = [42, 7]"] ;
594 -> 595 ;
596 [label="gini = 0.0768\nsamples = 25\nvalue = [24, 1]"] ;
595 -> 596 ;
597 [label="gini = 0.375\nsamples = 24\nvalue = [18, 6]"] ;
595 -> 597 ;
598 [label="X[16] <= 9297.0\ngini = 0.0736\nsamples = 209\nvalue = [201, 8]"] ;
594 -> 598 ;
599 [label="X[16] <= 8928.0\ngini = 0.1225\nsamples = 122\nvalue = [114, 8]"] ;
598 -> 599 ;
600 [label="X[9] <= 1.5\ngini = 0.0761\nsamples = 101\nvalue = [97, 4]"] ;
599 -> 600 ;
601 [label="X[20] <= 10633.0\ngini = 0.0263\nsamples = 75\nvalue = [74, 1]"] ;
600 -> 601 ;
602 [label="gini = 0.0\nsamples = 54\nvalue = [54, 0]"] ;
601 -> 602 ;
603 [label="gini = 0.0907\nsamples = 21\nvalue = [20, 1]"] ;
601 -> 603 ;
604 [label="gini = 0.2041\nsamples = 26\nvalue = [23, 3]"] ;
600 -> 604 ;
605 [label="gini = 0.3084\nsamples = 21\nvalue = [17, 4]"] ;
599 -> 605 ;
606 [label="gini = 0.0\nsamples = 87\nvalue = [87, 0]"] ;
598 -> 606 ;
607 [label="X[6] <= 400.5\ngini = 0.2211\nsamples = 79\nvalue = [69, 10]"] ;
593 -> 607 ;
608 [label="gini = 0.0\nsamples = 22\nvalue = [22, 0]"] ;
607 -> 608 ;
609 [label="X[6] <= 499.5\ngini = 0.2893\nsamples = 57\nvalue = [47, 10]"] ;
607 -> 609 ;
610 [label="gini = 0.3673\nsamples = 33\nvalue = [25, 8]"] ;
609 -> 610 ;
611 [label="gini = 0.1528\nsamples = 24\nvalue = [22, 2]"] ;
609 -> 611 ;
612 [label="gini = 0.426\nsamples = 26\nvalue = [18, 8]"] ;
560 -> 612 ;
613 [label="X[17] <= 13294.5\ngini = 0.0856\nsamples = 3304\nvalue = [3156, 148]"] ;
559 -> 613 ;
614 [label="X[29] <= 1042.0\ngini = 0.0717\nsamples = 2311\nvalue = [2225, 86]"] ;
613 -> 614 ;
615 [label="X[28] <= 0.5\ngini = 0.0985\nsamples = 866\nvalue = [821, 45]"] ;
614 -> 615 ;
616 [label="X[24] <= 52.5\ngini = 0.0912\nsamples = 835\nvalue = [795, 40]"] ;
615 -> 616 ;
617 [label="X[3] <= 3.5\ngini = 0.0622\nsamples = 498\nvalue = [482, 16]"] ;
616 -> 617 ;
618 [label="X[16] <= 10481.5\ngini = 0.1597\nsamples = 80\nvalue = [73, 7]"] ;
617 -> 618 ;
619 [label="X[20] <= 9785.0\ngini = 0.0689\nsamples = 56\nvalue = [54, 2]"] ;
618 -> 619 ;
620 [label="gini = 0.1723\nsamples = 21\nvalue = [19, 2]"] ;
619 -> 620 ;
621 [label="gini = 0.0\nsamples = 35\nvalue = [35, 0]"] ;
619 -> 621 ;
622 [label="gini = 0.3299\nsamples = 24\nvalue = [19, 5]"] ;
618 -> 622 ;
623 [label="X[27] <= 7532.5\ngini = 0.0421\nsamples = 418\nvalue = [409, 9]"] ;
617 -> 623 ;
624 [label="X[18] <= 7995.0\ngini = 0.0852\nsamples = 157\nvalue = [150, 7]"] ;
623 -> 624 ;
625 [label="X[26] <= 31.5\ngini = 0.0458\nsamples = 128\nvalue = [125, 3]"] ;
624 -> 625 ;
626 [label="X[21] <= 12305.5\ngini = 0.02\nsamples = 99\nvalue = [98, 1]"] ;
625 -> 626 ;
627 [label="gini = 0.0\nsamples = 78\nvalue = [78, 0]"] ;
626 -> 627 ;
628 [label="gini = 0.0907\nsamples = 21\nvalue = [20, 1]"] ;
626 -> 628 ;
629 [label="gini = 0.1284\nsamples = 29\nvalue = [27, 2]"] ;
625 -> 629 ;
630 [label="gini = 0.2378\nsamples = 29\nvalue = [25, 4]"] ;
624 -> 630 ;
631 [label="X[21] <= 10687.0\ngini = 0.0152\nsamples = 261\nvalue = [259, 2]"] ;
623 -> 631 ;
632 [label="gini = 0.1172\nsamples = 32\nvalue = [30, 2]"] ;
631 -> 632 ;
633 [label="gini = 0.0\nsamples = 229\nvalue = [229, 0]"] ;
631 -> 633 ;
634 [label="X[16] <= 11320.0\ngini = 0.1323\nsamples = 337\nvalue = [313, 24]"] ;
616 -> 634 ;
635 [label="X[25] <= 57.0\ngini = 0.1001\nsamples = 284\nvalue = [269, 15]"] ;
634 -> 635 ;
636 [label="X[19] <= 8449.0\ngini = 0.2029\nsamples = 96\nvalue = [85, 11]"] ;
635 -> 636 ;
637 [label="X[19] <= 7605.5\ngini = 0.2812\nsamples = 65\nvalue = [54, 11]"] ;
636 -> 637 ;
638 [label="gini = 0.0\nsamples = 25\nvalue = [25, 0]"] ;
637 -> 638 ;
639 [label="gini = 0.3988\nsamples = 40\nvalue = [29, 11]"] ;
637 -> 639 ;
640 [label="gini = 0.0\nsamples = 31\nvalue = [31, 0]"] ;
636 -> 640 ;
641 [label="X[14] <= 6354.0\ngini = 0.0416\nsamples = 188\nvalue = [184, 4]"] ;
635 -> 641 ;
642 [label="X[6] <= 260.5\ngini = 0.1128\nsamples = 50\nvalue = [47, 3]"] ;
641 -> 642 ;
643 [label="gini = 0.2449\nsamples = 21\nvalue = [18, 3]"] ;
642 -> 643 ;
644 [label="gini = 0.0\nsamples = 29\nvalue = [29, 0]"] ;
642 -> 644 ;
645 [label="X[15] <= 10360.5\ngini = 0.0144\nsamples = 138\nvalue = [137, 1]"] ;
641 -> 645 ;
646 [label="gini = 0.0\nsamples = 117\nvalue = [117, 0]"] ;
645 -> 646 ;
647 [label="gini = 0.0907\nsamples = 21\nvalue = [20, 1]"] ;
645 -> 647 ;
648 [label="X[14] <= 8042.0\ngini = 0.282\nsamples = 53\nvalue = [44, 9]"] ;
634 -> 648 ;
649 [label="gini = 0.375\nsamples = 32\nvalue = [24, 8]"] ;
648 -> 649 ;
650 [label="gini = 0.0907\nsamples = 21\nvalue = [20, 1]"] ;
648 -> 650 ;
651 [label="gini = 0.2706\nsamples = 31\nvalue = [26, 5]"] ;
615 -> 651 ;
652 [label="X[14] <= 6192.5\ngini = 0.0551\nsamples = 1445\nvalue = [1404, 41]"] ;
614 -> 652 ;
653 [label="X[7] <= 6.5\ngini = 0.129\nsamples = 101\nvalue = [94, 7]"] ;
652 -> 653 ;
654 [label="X[17] <= 10924.0\ngini = 0.2408\nsamples = 50\nvalue = [43, 7]"] ;
653 -> 654 ;
655 [label="gini = 0.0689\nsamples = 28\nvalue = [27, 1]"] ;
654 -> 655 ;
656 [label="gini = 0.3967\nsamples = 22\nvalue = [16, 6]"] ;
654 -> 656 ;
657 [label="gini = 0.0\nsamples = 51\nvalue = [51, 0]"] ;
653 -> 657 ;
658 [label="X[13] <= 0.5\ngini = 0.0493\nsamples = 1344\nvalue = [1310, 34]"] ;
652 -> 658 ;
659 [label="X[10] <= 84657.0\ngini = 0.0827\nsamples = 347\nvalue = [332, 15]"] ;
658 -> 659 ;
660 [label="X[12] <= 3.0\ngini = 0.0682\nsamples = 311\nvalue = [300, 11]"] ;
659 -> 660 ;
661 [label="gini = 0.1761\nsamples = 41\nvalue = [37, 4]"] ;
660 -> 661 ;
662 [label="X[27] <= 7945.0\ngini = 0.0505\nsamples = 270\nvalue = [263, 7]"] ;
660 -> 662 ;
663 [label="gini = 0.0\nsamples = 112\nvalue = [112, 0]"] ;
662 -> 663 ;
664 [label="X[20] <= 10722.0\ngini = 0.0847\nsamples = 158\nvalue = [151, 7]"] ;
662 -> 664 ;
665 [label="X[4] <= 583.5\ngini = 0.1356\nsamples = 82\nvalue = [76, 6]"] ;
664 -> 665 ;
666 [label="X[25] <= 120.5\ngini = 0.074\nsamples = 52\nvalue = [50, 2]"] ;
665 -> 666 ;
667 [label="gini = 0.0\nsamples = 31\nvalue = [31, 0]"] ;
666 -> 667 ;
668 [label="gini = 0.1723\nsamples = 21\nvalue = [19, 2]"] ;
666 -> 668 ;
669 [label="gini = 0.2311\nsamples = 30\nvalue = [26, 4]"] ;
665 -> 669 ;
670 [label="X[21] <= 14279.0\ngini = 0.026\nsamples = 76\nvalue = [75, 1]"] ;
664 -> 670 ;
671 [label="gini = 0.0\nsamples = 55\nvalue = [55, 0]"] ;
670 -> 671 ;
672 [label="gini = 0.0907\nsamples = 21\nvalue = [20, 1]"] ;
670 -> 672 ;
673 [label="gini = 0.1975\nsamples = 36\nvalue = [32, 4]"] ;
659 -> 673 ;
674 [label="X[10] <= 73045.5\ngini = 0.0374\nsamples = 997\nvalue = [978, 19]"] ;
658 -> 674 ;
675 [label="X[10] <= 71948.0\ngini = 0.0614\nsamples = 473\nvalue = [458, 15]"] ;
674 -> 675 ;
676 [label="X[7] <= 6.5\ngini = 0.0457\nsamples = 427\nvalue = [417, 10]"] ;
675 -> 676 ;
677 [label="X[20] <= 8207.5\ngini = 0.0843\nsamples = 204\nvalue = [195, 9]"] ;
676 -> 677 ;
678 [label="gini = 0.2285\nsamples = 38\nvalue = [33, 5]"] ;
677 -> 678 ;
679 [label="X[18] <= 8228.0\ngini = 0.047\nsamples = 166\nvalue = [162, 4]"] ;
677 -> 679 ;
680 [label="X[4] <= 890.5\ngini = 0.014\nsamples = 142\nvalue = [141, 1]"] ;
679 -> 680 ;
681 [label="gini = 0.0\nsamples = 121\nvalue = [121, 0]"] ;
680 -> 681 ;
682 [label="gini = 0.0907\nsamples = 21\nvalue = [20, 1]"] ;
680 -> 682 ;
683 [label="gini = 0.2188\nsamples = 24\nvalue = [21, 3]"] ;
679 -> 683 ;
684 [label="X[10] <= 70611.0\ngini = 0.0089\nsamples = 223\nvalue = [222, 1]"] ;
676 -> 684 ;
685 [label="gini = 0.0\nsamples = 202\nvalue = [202, 0]"] ;
684 -> 685 ;
686 [label="gini = 0.0907\nsamples = 21\nvalue = [20, 1]"] ;
684 -> 686 ;
687 [label="X[20] <= 10183.0\ngini = 0.1938\nsamples = 46\nvalue = [41, 5]"] ;
675 -> 687 ;
688 [label="gini = 0.0\nsamples = 21\nvalue = [21, 0]"] ;
687 -> 688 ;
689 [label="gini = 0.32\nsamples = 25\nvalue = [20, 5]"] ;
687 -> 689 ;
690 [label="X[15] <= 7659.0\ngini = 0.0152\nsamples = 524\nvalue = [520, 4]"] ;
674 -> 690 ;
691 [label="gini = 0.0907\nsamples = 21\nvalue = [20, 1]"] ;
690 -> 691 ;
692 [label="X[10] <= 89298.0\ngini = 0.0119\nsamples = 503\nvalue = [500, 3]"] ;
690 -> 692 ;
693 [label="X[27] <= 8022.5\ngini = 0.0083\nsamples = 478\nvalue = [476, 2]"] ;
692 -> 693 ;
694 [label="gini = 0.0\nsamples = 371\nvalue = [371, 0]"] ;
693 -> 694 ;
695 [label="X[26] <= 31.5\ngini = 0.0367\nsamples = 107\nvalue = [105, 2]"] ;
693 -> 695 ;
696 [label="gini = 0.0\nsamples = 86\nvalue = [86, 0]"] ;
695 -> 696 ;
697 [label="gini = 0.1723\nsamples = 21\nvalue = [19, 2]"] ;
695 -> 697 ;
698 [label="gini = 0.0768\nsamples = 25\nvalue = [24, 1]"] ;
692 -> 698 ;
699 [label="X[14] <= 9024.0\ngini = 0.1171\nsamples = 993\nvalue = [931, 62]"] ;
613 -> 699 ;
700 [label="X[16] <= 13275.5\ngini = 0.145\nsamples = 610\nvalue = [562, 48]"] ;
699 -> 700 ;
701 [label="X[10] <= 75626.0\ngini = 0.1318\nsamples = 578\nvalue = [537, 41]"] ;
700 -> 701 ;
702 [label="X[24] <= 38.5\ngini = 0.0724\nsamples = 266\nvalue = [256, 10]"] ;
701 -> 702 ;
703 [label="X[21] <= 13348.5\ngini = 0.1672\nsamples = 76\nvalue = [69, 7]"] ;
702 -> 703 ;
704 [label="gini = 0.375\nsamples = 24\nvalue = [18, 6]"] ;
703 -> 704 ;
705 [label="X[18] <= 8672.0\ngini = 0.0377\nsamples = 52\nvalue = [51, 1]"] ;
703 -> 705 ;
706 [label="gini = 0.0\nsamples = 31\nvalue = [31, 0]"] ;
705 -> 706 ;
707 [label="gini = 0.0907\nsamples = 21\nvalue = [20, 1]"] ;
705 -> 707 ;
708 [label="X[21] <= 14801.0\ngini = 0.0311\nsamples = 190\nvalue = [187, 3]"] ;
702 -> 708 ;
709 [label="X[25] <= 181.0\ngini = 0.0118\nsamples = 169\nvalue = [168, 1]"] ;
708 -> 709 ;
710 [label="gini = 0.0\nsamples = 144\nvalue = [144, 0]"] ;
709 -> 710 ;
711 [label="gini = 0.0768\nsamples = 25\nvalue = [24, 1]"] ;
709 -> 711 ;
712 [label="gini = 0.1723\nsamples = 21\nvalue = [19, 2]"] ;
708 -> 712 ;
713 [label="X[29] <= 1357.0\ngini = 0.179\nsamples = 312\nvalue = [281, 31]"] ;
701 -> 713 ;
714 [label="X[1] <= 2006.5\ngini = 0.2891\nsamples = 97\nvalue = [80, 17]"] ;
713 -> 714 ;
715 [label="X[20] <= 12149.0\ngini = 0.2\nsamples = 71\nvalue = [63, 8]"] ;
714 -> 715 ;
716 [label="X[26] <= 30.5\ngini = 0.1128\nsamples = 50\nvalue = [47, 3]"] ;
715 -> 716 ;
717 [label="gini = 0.0\nsamples = 29\nvalue = [29, 0]"] ;
716 -> 717 ;
718 [label="gini = 0.2449\nsamples = 21\nvalue = [18, 3]"] ;
716 -> 718 ;
719 [label="gini = 0.3628\nsamples = 21\nvalue = [16, 5]"] ;
715 -> 719 ;
720 [label="gini = 0.4527\nsamples = 26\nvalue = [17, 9]"] ;
714 -> 720 ;
721 [label="X[24] <= 43.5\ngini = 0.1218\nsamples = 215\nvalue = [201, 14]"] ;
713 -> 721 ;
722 [label="gini = 0.0\nsamples = 74\nvalue = [74, 0]"] ;
721 -> 722 ;
723 [label="X[3] <= 5.5\ngini = 0.1789\nsamples = 141\nvalue = [127, 14]"] ;
721 -> 723 ;
724 [label="X[10] <= 84702.5\ngini = 0.0768\nsamples = 75\nvalue = [72, 3]"] ;
723 -> 724 ;
725 [label="gini = 0.0\nsamples = 44\nvalue = [44, 0]"] ;
724 -> 725 ;
726 [label="gini = 0.1748\nsamples = 31\nvalue = [28, 3]"] ;
724 -> 726 ;
727 [label="X[27] <= 7860.0\ngini = 0.2778\nsamples = 66\nvalue = [55, 11]"] ;
723 -> 727 ;
728 [label="X[27] <= 7495.0\ngini = 0.162\nsamples = 45\nvalue = [41, 4]"] ;
727 -> 728 ;
729 [label="gini = 0.2975\nsamples = 22\nvalue = [18, 4]"] ;
728 -> 729 ;
730 [label="gini = 0.0\nsamples = 23\nvalue = [23, 0]"] ;
728 -> 730 ;
731 [label="gini = 0.4444\nsamples = 21\nvalue = [14, 7]"] ;
727 -> 731 ;
732 [label="gini = 0.3418\nsamples = 32\nvalue = [25, 7]"] ;
700 -> 732 ;
733 [label="X[4] <= 49.5\ngini = 0.0704\nsamples = 383\nvalue = [369, 14]"] ;
699 -> 733 ;
734 [label="gini = 0.2337\nsamples = 37\nvalue = [32, 5]"] ;
733 -> 734 ;
735 [label="X[21] <= 15598.5\ngini = 0.0507\nsamples = 346\nvalue = [337, 9]"] ;
733 -> 735 ;
736 [label="X[24] <= 63.5\ngini = 0.0373\nsamples = 316\nvalue = [310, 6]"] ;
735 -> 736 ;
737 [label="X[24] <= 38.5\ngini = 0.0269\nsamples = 293\nvalue = [289, 4]"] ;
736 -> 737 ;
738 [label="X[17] <= 14815.5\ngini = 0.0807\nsamples = 95\nvalue = [91, 4]"] ;
737 -> 738 ;
739 [label="gini = 0.2076\nsamples = 34\nvalue = [30, 4]"] ;
738 -> 739 ;
740 [label="gini = 0.0\nsamples = 61\nvalue = [61, 0]"] ;
738 -> 740 ;
741 [label="gini = 0.0\nsamples = 198\nvalue = [198, 0]"] ;
737 -> 741 ;
742 [label="gini = 0.1588\nsamples = 23\nvalue = [21, 2]"] ;
736 -> 742 ;
743 [label="gini = 0.18\nsamples = 30\nvalue = [27, 3]"] ;
735 -> 743 ;
744 [label="X[18] <= 9431.0\ngini = 0.1849\nsamples = 1038\nvalue = [931, 107]"] ;
266 -> 744 ;
745 [label="gini = 0.375\nsamples = 32\nvalue = [24, 8]"] ;
744 -> 745 ;
746 [label="X[25] <= 48.5\ngini = 0.1775\nsamples = 1006\nvalue = [907, 99]"] ;
744 -> 746 ;
747 [label="X[19] <= 12328.0\ngini = 0.0997\nsamples = 190\nvalue = [180, 10]"] ;
746 -> 747 ;
748 [label="X[3] <= 9.0\ngini = 0.2019\nsamples = 79\nvalue = [70, 9]"] ;
747 -> 748 ;
749 [label="X[15] <= 11851.5\ngini = 0.0981\nsamples = 58\nvalue = [55, 3]"] ;
748 -> 749 ;
750 [label="gini = 0.0\nsamples = 37\nvalue = [37, 0]"] ;
749 -> 750 ;
751 [label="gini = 0.2449\nsamples = 21\nvalue = [18, 3]"] ;
749 -> 751 ;
752 [label="gini = 0.4082\nsamples = 21\nvalue = [15, 6]"] ;
748 -> 752 ;
753 [label="X[18] <= 10533.0\ngini = 0.0179\nsamples = 111\nvalue = [110, 1]"] ;
747 -> 753 ;
754 [label="gini = 0.0907\nsamples = 21\nvalue = [20, 1]"] ;
753 -> 754 ;
755 [label="gini = 0.0\nsamples = 90\nvalue = [90, 0]"] ;
753 -> 755 ;
756 [label="X[25] <= 125.5\ngini = 0.1943\nsamples = 816\nvalue = [727, 89]"] ;
746 -> 756 ;
757 [label="X[4] <= 1.0\ngini = 0.2537\nsamples = 322\nvalue = [274, 48]"] ;
756 -> 757 ;
758 [label="gini = 0.4527\nsamples = 26\nvalue = [17, 9]"] ;
757 -> 758 ;
759 [label="X[5] <= 10.5\ngini = 0.2288\nsamples = 296\nvalue = [257, 39]"] ;
757 -> 759 ;
760 [label="X[15] <= 13663.5\ngini = 0.3304\nsamples = 91\nvalue = [72, 19]"] ;
759 -> 760 ;
761 [label="X[25] <= 97.5\ngini = 0.2649\nsamples = 70\nvalue = [59, 11]"] ;
760 -> 761 ;
762 [label="X[10] <= 77841.5\ngini = 0.1528\nsamples = 48\nvalue = [44, 4]"] ;
761 -> 762 ;
763 [label="gini = 0.0\nsamples = 25\nvalue = [25, 0]"] ;
762 -> 763 ;
764 [label="gini = 0.2873\nsamples = 23\nvalue = [19, 4]"] ;
762 -> 764 ;
765 [label="gini = 0.4339\nsamples = 22\nvalue = [15, 7]"] ;
761 -> 765 ;
766 [label="gini = 0.4717\nsamples = 21\nvalue = [13, 8]"] ;
760 -> 766 ;
767 [label="X[10] <= 82242.0\ngini = 0.1761\nsamples = 205\nvalue = [185, 20]"] ;
759 -> 767 ;
768 [label="X[15] <= 12043.5\ngini = 0.2464\nsamples = 132\nvalue = [113, 19]"] ;
767 -> 768 ;
769 [label="X[19] <= 11850.0\ngini = 0.0799\nsamples = 48\nvalue = [46, 2]"] ;
768 -> 769 ;
770 [label="gini = 0.1723\nsamples = 21\nvalue = [19, 2]"] ;
769 -> 770 ;
771 [label="gini = 0.0\nsamples = 27\nvalue = [27, 0]"] ;
769 -> 771 ;
772 [label="X[24] <= 48.5\ngini = 0.3228\nsamples = 84\nvalue = [67, 17]"] ;
768 -> 772 ;
773 [label="gini = 0.1761\nsamples = 41\nvalue = [37, 4]"] ;
772 -> 773 ;
774 [label="X[26] <= 26.5\ngini = 0.4218\nsamples = 43\nvalue = [30, 13]"] ;
772 -> 774 ;
775 [label="gini = 0.3084\nsamples = 21\nvalue = [17, 4]"] ;
774 -> 775 ;
776 [label="gini = 0.4835\nsamples = 22\nvalue = [13, 9]"] ;
774 -> 776 ;
777 [label="X[5] <= 60.0\ngini = 0.027\nsamples = 73\nvalue = [72, 1]"] ;
767 -> 777 ;
778 [label="gini = 0.0907\nsamples = 21\nvalue = [20, 1]"] ;
777 -> 778 ;
779 [label="gini = 0.0\nsamples = 52\nvalue = [52, 0]"] ;
777 -> 779 ;
780 [label="X[10] <= 92820.0\ngini = 0.1522\nsamples = 494\nvalue = [453, 41]"] ;
756 -> 780 ;
781 [label="X[4] <= 1011.5\ngini = 0.1376\nsamples = 471\nvalue = [436, 35]"] ;
780 -> 781 ;
782 [label="X[27] <= 9832.5\ngini = 0.1255\nsamples = 446\nvalue = [416, 30]"] ;
781 -> 782 ;
783 [label="X[5] <= 56.5\ngini = 0.091\nsamples = 293\nvalue = [279, 14]"] ;
782 -> 783 ;
784 [label="X[14] <= 9583.0\ngini = 0.0187\nsamples = 106\nvalue = [105, 1]"] ;
783 -> 784 ;
785 [label="gini = 0.0907\nsamples = 21\nvalue = [20, 1]"] ;
784 -> 785 ;
786 [label="gini = 0.0\nsamples = 85\nvalue = [85, 0]"] ;
784 -> 786 ;
787 [label="X[2] <= 3.5\ngini = 0.1294\nsamples = 187\nvalue = [174, 13]"] ;
783 -> 787 ;
788 [label="X[6] <= 240.5\ngini = 0.0745\nsamples = 129\nvalue = [124, 5]"] ;
787 -> 788 ;
789 [label="gini = 0.2355\nsamples = 22\nvalue = [19, 3]"] ;
788 -> 789 ;
790 [label="X[10] <= 74530.0\ngini = 0.0367\nsamples = 107\nvalue = [105, 2]"] ;
788 -> 790 ;
791 [label="gini = 0.0997\nsamples = 38\nvalue = [36, 2]"] ;
790 -> 791 ;
792 [label="gini = 0.0\nsamples = 69\nvalue = [69, 0]"] ;
790 -> 792 ;
793 [label="X[15] <= 12396.5\ngini = 0.2378\nsamples = 58\nvalue = [50, 8]"] ;
787 -> 793 ;
794 [label="gini = 0.0624\nsamples = 31\nvalue = [30, 1]"] ;
793 -> 794 ;
795 [label="gini = 0.3841\nsamples = 27\nvalue = [20, 7]"] ;
793 -> 795 ;
796 [label="X[18] <= 10546.0\ngini = 0.1873\nsamples = 153\nvalue = [137, 16]"] ;
782 -> 796 ;
797 [label="gini = 0.3682\nsamples = 37\nvalue = [28, 9]"] ;
796 -> 797 ;
798 [label="X[4] <= 438.0\ngini = 0.1134\nsamples = 116\nvalue = [109, 7]"] ;
796 -> 798 ;
799 [label="X[7] <= 13.5\ngini = 0.0487\nsamples = 80\nvalue = [78, 2]"] ;
798 -> 799 ;
800 [label="gini = 0.0\nsamples = 57\nvalue = [57, 0]"] ;
799 -> 800 ;
801 [label="gini = 0.1588\nsamples = 23\nvalue = [21, 2]"] ;
799 -> 801 ;
802 [label="gini = 0.2392\nsamples = 36\nvalue = [31, 5]"] ;
798 -> 802 ;
803 [label="gini = 0.32\nsamples = 25\nvalue = [20, 5]"] ;
781 -> 803 ;
804 [label="gini = 0.3856\nsamples = 23\nvalue = [17, 6]"] ;
780 -> 804 ;
805 [label="X[15] <= 5395.5\ngini = 0.0655\nsamples = 1356\nvalue = [1310, 46]"] ;
217 -> 805 ;
806 [label="gini = 0.2392\nsamples = 36\nvalue = [31, 5]"] ;
805 -> 806 ;
807 [label="X[21] <= 16523.5\ngini = 0.0602\nsamples = 1320\nvalue = [1279, 41]"] ;
805 -> 807 ;
808 [label="X[20] <= 10672.5\ngini = 0.0568\nsamples = 1298\nvalue = [1260, 38]"] ;
807 -> 808 ;
809 [label="X[15] <= 8292.0\ngini = 0.0761\nsamples = 909\nvalue = [873, 36]"] ;
808 -> 809 ;
810 [label="X[10] <= 78747.0\ngini = 0.0617\nsamples = 753\nvalue = [729, 24]"] ;
809 -> 810 ;
811 [label="X[29] <= 823.5\ngini = 0.0467\nsamples = 627\nvalue = [612, 15]"] ;
810 -> 811 ;
812 [label="X[19] <= 6699.0\ngini = 0.126\nsamples = 74\nvalue = [69, 5]"] ;
811 -> 812 ;
813 [label="gini = 0.2285\nsamples = 38\nvalue = [33, 5]"] ;
812 -> 813 ;
814 [label="gini = 0.0\nsamples = 36\nvalue = [36, 0]"] ;
812 -> 814 ;
815 [label="X[10] <= 56480.0\ngini = 0.0355\nsamples = 553\nvalue = [543, 10]"] ;
811 -> 815 ;
816 [label="X[10] <= 55286.5\ngini = 0.0619\nsamples = 219\nvalue = [212, 7]"] ;
815 -> 816 ;
817 [label="X[10] <= 53696.0\ngini = 0.0396\nsamples = 198\nvalue = [194, 4]"] ;
816 -> 817 ;
818 [label="X[25] <= 84.5\ngini = 0.0238\nsamples = 166\nvalue = [164, 2]"] ;
817 -> 818 ;
819 [label="X[27] <= 5927.5\ngini = 0.0634\nsamples = 61\nvalue = [59, 2]"] ;
818 -> 819 ;
820 [label="gini = 0.1327\nsamples = 28\nvalue = [26, 2]"] ;
819 -> 820 ;
821 [label="gini = 0.0\nsamples = 33\nvalue = [33, 0]"] ;
819 -> 821 ;
822 [label="gini = 0.0\nsamples = 105\nvalue = [105, 0]"] ;
818 -> 822 ;
823 [label="gini = 0.1172\nsamples = 32\nvalue = [30, 2]"] ;
817 -> 823 ;
824 [label="gini = 0.2449\nsamples = 21\nvalue = [18, 3]"] ;
816 -> 824 ;
825 [label="X[27] <= 5235.0\ngini = 0.0178\nsamples = 334\nvalue = [331, 3]"] ;
815 -> 825 ;
826 [label="X[20] <= 6486.5\ngini = 0.0981\nsamples = 58\nvalue = [55, 3]"] ;
825 -> 826 ;
827 [label="gini = 0.0\nsamples = 36\nvalue = [36, 0]"] ;
826 -> 827 ;
828 [label="gini = 0.2355\nsamples = 22\nvalue = [19, 3]"] ;
826 -> 828 ;
829 [label="gini = 0.0\nsamples = 276\nvalue = [276, 0]"] ;
825 -> 829 ;
830 [label="X[5] <= 84.0\ngini = 0.1327\nsamples = 126\nvalue = [117, 9]"] ;
810 -> 830 ;
831 [label="X[26] <= 16.0\ngini = 0.0775\nsamples = 99\nvalue = [95, 4]"] ;
830 -> 831 ;
832 [label="gini = 0.2311\nsamples = 30\nvalue = [26, 4]"] ;
831 -> 832 ;
833 [label="gini = 0.0\nsamples = 69\nvalue = [69, 0]"] ;
831 -> 833 ;
834 [label="gini = 0.3018\nsamples = 27\nvalue = [22, 5]"] ;
830 -> 834 ;
835 [label="X[25] <= 178.5\ngini = 0.142\nsamples = 156\nvalue = [144, 12]"] ;
809 -> 835 ;
836 [label="X[27] <= 7355.0\ngini = 0.1012\nsamples = 131\nvalue = [124, 7]"] ;
835 -> 836 ;
837 [label="X[10] <= 70015.5\ngini = 0.1847\nsamples = 68\nvalue = [61, 7]"] ;
836 -> 837 ;
838 [label="gini = 0.2934\nsamples = 28\nvalue = [23, 5]"] ;
837 -> 838 ;
839 [label="gini = 0.095\nsamples = 40\nvalue = [38, 2]"] ;
837 -> 839 ;
840 [label="gini = 0.0\nsamples = 63\nvalue = [63, 0]"] ;
836 -> 840 ;
841 [label="gini = 0.32\nsamples = 25\nvalue = [20, 5]"] ;
835 -> 841 ;
842 [label="X[27] <= 6942.5\ngini = 0.0102\nsamples = 389\nvalue = [387, 2]"] ;
808 -> 842 ;
843 [label="X[25] <= 59.0\ngini = 0.0605\nsamples = 64\nvalue = [62, 2]"] ;
842 -> 843 ;
844 [label="gini = 0.1723\nsamples = 21\nvalue = [19, 2]"] ;
843 -> 844 ;
845 [label="gini = 0.0\nsamples = 43\nvalue = [43, 0]"] ;
843 -> 845 ;
846 [label="gini = 0.0\nsamples = 325\nvalue = [325, 0]"] ;
842 -> 846 ;
847 [label="gini = 0.2355\nsamples = 22\nvalue = [19, 3]"] ;
807 -> 847 ;
848 [label="gini = 0.4745\nsamples = 31\nvalue = [19, 12]"] ;
216 -> 848 ;
849 [label="X[27] <= 4447.5\ngini = 0.2561\nsamples = 12148\nvalue = [10316, 1832]"] ;
1 -> 849 ;
850 [label="X[2] <= 6.5\ngini = 0.3458\nsamples = 2307\nvalue = [1794, 513]"] ;
849 -> 850 ;
851 [label="X[24] <= 31.5\ngini = 0.2965\nsamples = 1315\nvalue = [1077, 238]"] ;
850 -> 851 ;
852 [label="X[7] <= 15.0\ngini = 0.1962\nsamples = 263\nvalue = [234, 29]"] ;
851 -> 852 ;
853 [label="X[16] <= 4271.0\ngini = 0.1555\nsamples = 200\nvalue = [183, 17]"] ;
852 -> 853 ;
854 [label="X[4] <= 397.0\ngini = 0.0449\nsamples = 87\nvalue = [85, 2]"] ;
853 -> 854 ;
855 [label="gini = 0.1723\nsamples = 21\nvalue = [19, 2]"] ;
854 -> 855 ;
856 [label="gini = 0.0\nsamples = 66\nvalue = [66, 0]"] ;
854 -> 856 ;
857 [label="X[6] <= 220.5\ngini = 0.2302\nsamples = 113\nvalue = [98, 15]"] ;
853 -> 857 ;
858 [label="X[3] <= 3.5\ngini = 0.1155\nsamples = 65\nvalue = [61, 4]"] ;
857 -> 858 ;
859 [label="gini = 0.2778\nsamples = 24\nvalue = [20, 4]"] ;
858 -> 859 ;
860 [label="gini = 0.0\nsamples = 41\nvalue = [41, 0]"] ;
858 -> 860 ;
861 [label="X[5] <= 81.5\ngini = 0.3533\nsamples = 48\nvalue = [37, 11]"] ;
857 -> 861 ;
862 [label="gini = 0.2604\nsamples = 26\nvalue = [22, 4]"] ;
861 -> 862 ;
863 [label="gini = 0.4339\nsamples = 22\nvalue = [15, 7]"] ;
861 -> 863 ;
864 [label="X[20] <= 4054.5\ngini = 0.3084\nsamples = 63\nvalue = [51, 12]"] ;
852 -> 864 ;
865 [label="gini = 0.4717\nsamples = 21\nvalue = [13, 8]"] ;
864 -> 865 ;
866 [label="X[20] <= 6050.0\ngini = 0.1723\nsamples = 42\nvalue = [38, 4]"] ;
864 -> 866 ;
867 [label="gini = 0.0\nsamples = 21\nvalue = [21, 0]"] ;
866 -> 867 ;
868 [label="gini = 0.3084\nsamples = 21\nvalue = [17, 4]"] ;
866 -> 868 ;
869 [label="X[10] <= 83744.5\ngini = 0.3184\nsamples = 1052\nvalue = [843, 209]"] ;
851 -> 869 ;
870 [label="X[4] <= 407.0\ngini = 0.2742\nsamples = 616\nvalue = [515, 101]"] ;
869 -> 870 ;
871 [label="X[18] <= 3453.5\ngini = 0.3534\nsamples = 205\nvalue = [158, 47]"] ;
870 -> 871 ;
872 [label="X[19] <= 3448.0\ngini = 0.308\nsamples = 163\nvalue = [132, 31]"] ;
871 -> 872 ;
873 [label="X[6] <= 190.5\ngini = 0.4494\nsamples = 44\nvalue = [29, 15]"] ;
872 -> 873 ;
874 [label="gini = 0.2449\nsamples = 21\nvalue = [18, 3]"] ;
873 -> 874 ;
875 [label="gini = 0.4991\nsamples = 23\nvalue = [11, 12]"] ;
873 -> 875 ;
876 [label="X[27] <= 3862.5\ngini = 0.2328\nsamples = 119\nvalue = [103, 16]"] ;
872 -> 876 ;
877 [label="X[25] <= 63.5\ngini = 0.3512\nsamples = 44\nvalue = [34, 10]"] ;
876 -> 877 ;
878 [label="gini = 0.4082\nsamples = 21\nvalue = [15, 6]"] ;
877 -> 878 ;
879 [label="gini = 0.2873\nsamples = 23\nvalue = [19, 4]"] ;
877 -> 879 ;
880 [label="X[17] <= 4793.0\ngini = 0.1472\nsamples = 75\nvalue = [69, 6]"] ;
876 -> 880 ;
881 [label="gini = 0.0\nsamples = 33\nvalue = [33, 0]"] ;
880 -> 881 ;
882 [label="X[19] <= 4011.5\ngini = 0.2449\nsamples = 42\nvalue = [36, 6]"] ;
880 -> 882 ;
883 [label="gini = 0.3628\nsamples = 21\nvalue = [16, 5]"] ;
882 -> 883 ;
884 [label="gini = 0.0907\nsamples = 21\nvalue = [20, 1]"] ;
882 -> 884 ;
885 [label="X[19] <= 4903.0\ngini = 0.4717\nsamples = 42\nvalue = [26, 16]"] ;
871 -> 885 ;
886 [label="gini = 0.4989\nsamples = 21\nvalue = [11, 10]"] ;
885 -> 886 ;
887 [label="gini = 0.4082\nsamples = 21\nvalue = [15, 6]"] ;
885 -> 887 ;
888 [label="X[27] <= 3487.5\ngini = 0.2282\nsamples = 411\nvalue = [357, 54]"] ;
870 -> 888 ;
889 [label="gini = 0.4121\nsamples = 31\nvalue = [22, 9]"] ;
888 -> 889 ;
890 [label="X[27] <= 3830.0\ngini = 0.2088\nsamples = 380\nvalue = [335, 45]"] ;
888 -> 890 ;
891 [label="X[16] <= 4244.5\ngini = 0.0596\nsamples = 65\nvalue = [63, 2]"] ;
890 -> 891 ;
892 [label="gini = 0.0\nsamples = 44\nvalue = [44, 0]"] ;
891 -> 892 ;
893 [label="gini = 0.1723\nsamples = 21\nvalue = [19, 2]"] ;
891 -> 893 ;
894 [label="X[10] <= 65630.5\ngini = 0.2357\nsamples = 315\nvalue = [272, 43]"] ;
890 -> 894 ;
895 [label="X[26] <= 31.0\ngini = 0.1145\nsamples = 82\nvalue = [77, 5]"] ;
894 -> 895 ;
896 [label="X[10] <= 54960.0\ngini = 0.0322\nsamples = 61\nvalue = [60, 1]"] ;
895 -> 896 ;
897 [label="gini = 0.0907\nsamples = 21\nvalue = [20, 1]"] ;
896 -> 897 ;
898 [label="gini = 0.0\nsamples = 40\nvalue = [40, 0]"] ;
896 -> 898 ;
899 [label="gini = 0.3084\nsamples = 21\nvalue = [17, 4]"] ;
895 -> 899 ;
900 [label="X[12] <= 3.5\ngini = 0.273\nsamples = 233\nvalue = [195, 38]"] ;
894 -> 900 ;
901 [label="X[18] <= 2778.5\ngini = 0.4109\nsamples = 45\nvalue = [32, 13]"] ;
900 -> 901 ;
902 [label="gini = 0.4764\nsamples = 23\nvalue = [14, 9]"] ;
901 -> 902 ;
903 [label="gini = 0.2975\nsamples = 22\nvalue = [18, 4]"] ;
901 -> 903 ;
904 [label="X[27] <= 4355.0\ngini = 0.2306\nsamples = 188\nvalue = [163, 25]"] ;
900 -> 904 ;
905 [label="X[25] <= 29.0\ngini = 0.191\nsamples = 159\nvalue = [142, 17]"] ;
904 -> 905 ;
906 [label="gini = 0.3512\nsamples = 22\nvalue = [17, 5]"] ;
905 -> 906 ;
907 [label="X[27] <= 4132.5\ngini = 0.1598\nsamples = 137\nvalue = [125, 12]"] ;
905 -> 907 ;
908 [label="X[29] <= 1524.5\ngini = 0.2449\nsamples = 70\nvalue = [60, 10]"] ;
907 -> 908 ;
909 [label="X[6] <= 259.5\ngini = 0.1499\nsamples = 49\nvalue = [45, 4]"] ;
908 -> 909 ;
910 [label="gini = 0.0\nsamples = 26\nvalue = [26, 0]"] ;
909 -> 910 ;
911 [label="gini = 0.2873\nsamples = 23\nvalue = [19, 4]"] ;
909 -> 911 ;
912 [label="gini = 0.4082\nsamples = 21\nvalue = [15, 6]"] ;
908 -> 912 ;
913 [label="X[17] <= 5954.2686\ngini = 0.0579\nsamples = 67\nvalue = [65, 2]"] ;
907 -> 913 ;
914 [label="gini = 0.0\nsamples = 46\nvalue = [46, 0]"] ;
913 -> 914 ;
915 [label="gini = 0.1723\nsamples = 21\nvalue = [19, 2]"] ;
913 -> 915 ;
916 [label="gini = 0.3995\nsamples = 29\nvalue = [21, 8]"] ;
904 -> 916 ;
917 [label="X[13] <= 0.5\ngini = 0.3727\nsamples = 436\nvalue = [328, 108]"] ;
869 -> 917 ;
918 [label="X[10] <= 94276.0\ngini = 0.4483\nsamples = 112\nvalue = [74, 38]"] ;
917 -> 918 ;
919 [label="X[26] <= 30.5\ngini = 0.4781\nsamples = 86\nvalue = [52, 34]"] ;
918 -> 919 ;
920 [label="X[4] <= 861.5\ngini = 0.4478\nsamples = 65\nvalue = [43, 22]"] ;
919 -> 920 ;
921 [label="gini = 0.3682\nsamples = 37\nvalue = [28, 9]"] ;
920 -> 921 ;
922 [label="gini = 0.4974\nsamples = 28\nvalue = [15, 13]"] ;
920 -> 922 ;
923 [label="gini = 0.4898\nsamples = 21\nvalue = [9, 12]"] ;
919 -> 923 ;
924 [label="gini = 0.2604\nsamples = 26\nvalue = [22, 4]"] ;
918 -> 924 ;
925 [label="X[29] <= 2645.0\ngini = 0.3387\nsamples = 324\nvalue = [254, 70]"] ;
917 -> 925 ;
926 [label="X[26] <= 7.5\ngini = 0.3044\nsamples = 283\nvalue = [230, 53]"] ;
925 -> 926 ;
927 [label="X[19] <= 4622.5\ngini = 0.1668\nsamples = 98\nvalue = [89, 9]"] ;
926 -> 927 ;
928 [label="X[24] <= 52.0\ngini = 0.082\nsamples = 70\nvalue = [67, 3]"] ;
927 -> 928 ;
929 [label="gini = 0.0\nsamples = 32\nvalue = [32, 0]"] ;
928 -> 929 ;
930 [label="gini = 0.1454\nsamples = 38\nvalue = [35, 3]"] ;
928 -> 930 ;
931 [label="gini = 0.3367\nsamples = 28\nvalue = [22, 6]"] ;
927 -> 931 ;
932 [label="X[10] <= 85143.0\ngini = 0.3625\nsamples = 185\nvalue = [141, 44]"] ;
926 -> 932 ;
933 [label="gini = 0.4898\nsamples = 21\nvalue = [12, 9]"] ;
932 -> 933 ;
934 [label="X[19] <= 4023.0\ngini = 0.3357\nsamples = 164\nvalue = [129, 35]"] ;
932 -> 934 ;
935 [label="X[10] <= 93987.0\ngini = 0.424\nsamples = 59\nvalue = [41, 18]"] ;
934 -> 935 ;
936 [label="gini = 0.3324\nsamples = 38\nvalue = [30, 8]"] ;
935 -> 936 ;
937 [label="gini = 0.4989\nsamples = 21\nvalue = [11, 10]"] ;
935 -> 937 ;
938 [label="X[21] <= 8418.0\ngini = 0.2714\nsamples = 105\nvalue = [88, 17]"] ;
934 -> 938 ;
939 [label="X[17] <= 7282.5\ngini = 0.1913\nsamples = 84\nvalue = [75, 9]"] ;
938 -> 939 ;
940 [label="X[15] <= 4180.0\ngini = 0.2585\nsamples = 59\nvalue = [50, 9]"] ;
939 -> 940 ;
941 [label="gini = 0.0832\nsamples = 23\nvalue = [22, 1]"] ;
940 -> 941 ;
942 [label="gini = 0.3457\nsamples = 36\nvalue = [28, 8]"] ;
940 -> 942 ;
943 [label="gini = 0.0\nsamples = 25\nvalue = [25, 0]"] ;
939 -> 943 ;
944 [label="gini = 0.4717\nsamples = 21\nvalue = [13, 8]"] ;
938 -> 944 ;
945 [label="gini = 0.4854\nsamples = 41\nvalue = [24, 17]"] ;
925 -> 945 ;
946 [label="X[23] <= 0.5\ngini = 0.4007\nsamples = 992\nvalue = [717, 275]"] ;
850 -> 946 ;
947 [label="X[15] <= 3917.0\ngini = 0.1132\nsamples = 83\nvalue = [78, 5]"] ;
946 -> 947 ;
948 [label="X[6] <= 213.0\ngini = 0.0317\nsamples = 62\nvalue = [61, 1]"] ;
947 -> 948 ;
949 [label="gini = 0.0907\nsamples = 21\nvalue = [20, 1]"] ;
948 -> 949 ;
950 [label="gini = 0.0\nsamples = 41\nvalue = [41, 0]"] ;
948 -> 950 ;
951 [label="gini = 0.3084\nsamples = 21\nvalue = [17, 4]"] ;
947 -> 951 ;
952 [label="X[10] <= 89705.5\ngini = 0.4176\nsamples = 909\nvalue = [639, 270]"] ;
946 -> 952 ;
953 [label="X[26] <= 25.0\ngini = 0.3746\nsamples = 637\nvalue = [478, 159]"] ;
952 -> 953 ;
954 [label="X[10] <= 58520.0\ngini = 0.3338\nsamples = 425\nvalue = [335, 90]"] ;
953 -> 954 ;
955 [label="X[21] <= 4273.5\ngini = 0.1396\nsamples = 53\nvalue = [49, 4]"] ;
954 -> 955 ;
956 [label="gini = 0.0\nsamples = 24\nvalue = [24, 0]"] ;
955 -> 956 ;
957 [label="gini = 0.2378\nsamples = 29\nvalue = [25, 4]"] ;
955 -> 957 ;
958 [label="X[20] <= 5166.0\ngini = 0.3555\nsamples = 372\nvalue = [286, 86]"] ;
954 -> 958 ;
959 [label="X[0] <= 0.5\ngini = 0.388\nsamples = 281\nvalue = [207, 74]"] ;
958 -> 959 ;
960 [label="gini = 0.1454\nsamples = 38\nvalue = [35, 3]"] ;
959 -> 960 ;
961 [label="X[20] <= 4711.0\ngini = 0.4136\nsamples = 243\nvalue = [172, 71]"] ;
959 -> 961 ;
962 [label="X[20] <= 4059.5\ngini = 0.3914\nsamples = 221\nvalue = [162, 59]"] ;
961 -> 962 ;
963 [label="X[10] <= 67767.0\ngini = 0.425\nsamples = 173\nvalue = [120, 53]"] ;
962 -> 963 ;
964 [label="gini = 0.4994\nsamples = 29\nvalue = [14, 15]"] ;
963 -> 964 ;
965 [label="X[16] <= 3482.0\ngini = 0.3885\nsamples = 144\nvalue = [106, 38]"] ;
963 -> 965 ;
966 [label="X[19] <= 2777.5\ngini = 0.3427\nsamples = 123\nvalue = [96, 27]"] ;
965 -> 966 ;
967 [label="gini = 0.48\nsamples = 30\nvalue = [18, 12]"] ;
966 -> 967 ;
968 [label="X[29] <= 2033.0\ngini = 0.2706\nsamples = 93\nvalue = [78, 15]"] ;
966 -> 968 ;
969 [label="X[19] <= 3297.5\ngini = 0.1207\nsamples = 62\nvalue = [58, 4]"] ;
968 -> 969 ;
970 [label="gini = 0.0\nsamples = 27\nvalue = [27, 0]"] ;
969 -> 970 ;
971 [label="gini = 0.2024\nsamples = 35\nvalue = [31, 4]"] ;
969 -> 971 ;
972 [label="gini = 0.4579\nsamples = 31\nvalue = [20, 11]"] ;
968 -> 972 ;
973 [label="gini = 0.4989\nsamples = 21\nvalue = [10, 11]"] ;
965 -> 973 ;
974 [label="X[19] <= 2653.5\ngini = 0.2188\nsamples = 48\nvalue = [42, 6]"] ;
962 -> 974 ;
975 [label="gini = 0.0\nsamples = 22\nvalue = [22, 0]"] ;
974 -> 975 ;
976 [label="gini = 0.355\nsamples = 26\nvalue = [20, 6]"] ;
974 -> 976 ;
977 [label="gini = 0.4959\nsamples = 22\nvalue = [10, 12]"] ;
961 -> 977 ;
978 [label="X[20] <= 5920.5\ngini = 0.229\nsamples = 91\nvalue = [79, 12]"] ;
958 -> 978 ;
979 [label="X[20] <= 5522.0\ngini = 0.0689\nsamples = 56\nvalue = [54, 2]"] ;
978 -> 979 ;
980 [label="gini = 0.0\nsamples = 35\nvalue = [35, 0]"] ;
979 -> 980 ;
981 [label="gini = 0.1723\nsamples = 21\nvalue = [19, 2]"] ;
979 -> 981 ;
982 [label="gini = 0.4082\nsamples = 35\nvalue = [25, 10]"] ;
978 -> 982 ;
983 [label="X[18] <= 1843.5\ngini = 0.4391\nsamples = 212\nvalue = [143, 69]"] ;
953 -> 983 ;
984 [label="gini = 0.0907\nsamples = 21\nvalue = [20, 1]"] ;
983 -> 984 ;
985 [label="X[1] <= 2002.5\ngini = 0.4585\nsamples = 191\nvalue = [123, 68]"] ;
983 -> 985 ;
986 [label="X[10] <= 65933.5\ngini = 0.4769\nsamples = 163\nvalue = [99, 64]"] ;
985 -> 986 ;
987 [label="gini = 0.2854\nsamples = 29\nvalue = [24, 5]"] ;
986 -> 987 ;
988 [label="X[0] <= 0.5\ngini = 0.4929\nsamples = 134\nvalue = [75, 59]"] ;
986 -> 988 ;
989 [label="gini = 0.3578\nsamples = 30\nvalue = [23, 7]"] ;
988 -> 989 ;
990 [label="X[18] <= 2172.0\ngini = 0.5\nsamples = 104\nvalue = [52, 52]"] ;
988 -> 990 ;
991 [label="gini = 0.3967\nsamples = 22\nvalue = [6, 16]"] ;
990 -> 991 ;
992 [label="X[18] <= 2386.0\ngini = 0.4926\nsamples = 82\nvalue = [46, 36]"] ;
990 -> 992 ;
993 [label="gini = 0.3018\nsamples = 27\nvalue = [22, 5]"] ;
992 -> 993 ;
994 [label="X[15] <= 3623.0\ngini = 0.4919\nsamples = 55\nvalue = [24, 31]"] ;
992 -> 994 ;
995 [label="gini = 0.3457\nsamples = 27\nvalue = [6, 21]"] ;
994 -> 995 ;
996 [label="gini = 0.4592\nsamples = 28\nvalue = [18, 10]"] ;
994 -> 996 ;
997 [label="gini = 0.2449\nsamples = 28\nvalue = [24, 4]"] ;
985 -> 997 ;
998 [label="X[17] <= 5802.0\ngini = 0.4831\nsamples = 272\nvalue = [161, 111]"] ;
952 -> 998 ;
999 [label="X[18] <= 2735.0\ngini = 0.4444\nsamples = 171\nvalue = [114, 57]"] ;
998 -> 999 ;
1000 [label="X[6] <= 162.0\ngini = 0.4819\nsamples = 121\nvalue = [72, 49]"] ;
999 -> 1000 ;
1001 [label="gini = 0.4234\nsamples = 23\nvalue = [7, 16]"] ;
1000 -> 1001 ;
1002 [label="X[18] <= 2390.5\ngini = 0.4467\nsamples = 98\nvalue = [65, 33]"] ;
1000 -> 1002 ;
1003 [label="X[0] <= 1.5\ngini = 0.3911\nsamples = 75\nvalue = [55, 20]"] ;
1002 -> 1003 ;
1004 [label="X[7] <= 10.0\ngini = 0.4486\nsamples = 53\nvalue = [35, 18]"] ;
1003 -> 1004 ;
1005 [label="gini = 0.5\nsamples = 24\nvalue = [12, 12]"] ;
1004 -> 1005 ;
1006 [label="gini = 0.3282\nsamples = 29\nvalue = [23, 6]"] ;
1004 -> 1006 ;
1007 [label="gini = 0.1653\nsamples = 22\nvalue = [20, 2]"] ;
1003 -> 1007 ;
1008 [label="gini = 0.4915\nsamples = 23\nvalue = [10, 13]"] ;
1002 -> 1008 ;
1009 [label="X[4] <= 515.5\ngini = 0.2688\nsamples = 50\nvalue = [42, 8]"] ;
999 -> 1009 ;
1010 [label="gini = 0.4234\nsamples = 23\nvalue = [16, 7]"] ;
1009 -> 1010 ;
1011 [label="gini = 0.0713\nsamples = 27\nvalue = [26, 1]"] ;
1009 -> 1011 ;
1012 [label="X[25] <= 36.5\ngini = 0.4976\nsamples = 101\nvalue = [47, 54]"] ;
998 -> 1012 ;
1013 [label="gini = 0.4339\nsamples = 22\nvalue = [15, 7]"] ;
1012 -> 1013 ;
1014 [label="X[25] <= 157.0\ngini = 0.482\nsamples = 79\nvalue = [32, 47]"] ;
1012 -> 1014 ;
1015 [label="X[13] <= 1.5\ngini = 0.4444\nsamples = 57\nvalue = [19, 38]"] ;
1014 -> 1015 ;
1016 [label="gini = 0.4938\nsamples = 36\nvalue = [16, 20]"] ;
1015 -> 1016 ;
1017 [label="gini = 0.2449\nsamples = 21\nvalue = [3, 18]"] ;
1015 -> 1017 ;
1018 [label="gini = 0.4835\nsamples = 22\nvalue = [13, 9]"] ;
1014 -> 1018 ;
1019 [label="X[2] <= 7.5\ngini = 0.2321\nsamples = 9841\nvalue = [8522, 1319]"] ;
849 -> 1019 ;
1020 [label="X[23] <= 1.5\ngini = 0.2209\nsamples = 9054\nvalue = [7909, 1145]"] ;
1019 -> 1020 ;
1021 [label="X[12] <= 6.5\ngini = 0.0751\nsamples = 512\nvalue = [492, 20]"] ;
1020 -> 1021 ;
1022 [label="X[10] <= 72698.0\ngini = 0.0616\nsamples = 440\nvalue = [426, 14]"] ;
1021 -> 1022 ;
1023 [label="X[26] <= 29.5\ngini = 0.109\nsamples = 121\nvalue = [114, 7]"] ;
1022 -> 1023 ;
1024 [label="X[29] <= 1243.5\ngini = 0.0449\nsamples = 87\nvalue = [85, 2]"] ;
1023 -> 1024 ;
1025 [label="gini = 0.0\nsamples = 64\nvalue = [64, 0]"] ;
1024 -> 1025 ;
1026 [label="gini = 0.1588\nsamples = 23\nvalue = [21, 2]"] ;
1024 -> 1026 ;
1027 [label="gini = 0.2509\nsamples = 34\nvalue = [29, 5]"] ;
1023 -> 1027 ;
1028 [label="X[29] <= 861.0\ngini = 0.0429\nsamples = 319\nvalue = [312, 7]"] ;
1022 -> 1028 ;
1029 [label="X[6] <= 254.5\ngini = 0.1349\nsamples = 55\nvalue = [51, 4]"] ;
1028 -> 1029 ;
1030 [label="gini = 0.0571\nsamples = 34\nvalue = [33, 1]"] ;
1029 -> 1030 ;
1031 [label="gini = 0.2449\nsamples = 21\nvalue = [18, 3]"] ;
1029 -> 1031 ;
1032 [label="X[13] <= 2.5\ngini = 0.0225\nsamples = 264\nvalue = [261, 3]"] ;
1028 -> 1032 ;
1033 [label="X[4] <= 986.5\ngini = 0.0083\nsamples = 240\nvalue = [239, 1]"] ;
1032 -> 1033 ;
1034 [label="gini = 0.0\nsamples = 219\nvalue = [219, 0]"] ;
1033 -> 1034 ;
1035 [label="gini = 0.0907\nsamples = 21\nvalue = [20, 1]"] ;
1033 -> 1035 ;
1036 [label="gini = 0.1528\nsamples = 24\nvalue = [22, 2]"] ;
1032 -> 1036 ;
1037 [label="X[6] <= 772.5\ngini = 0.1528\nsamples = 72\nvalue = [66, 6]"] ;
1021 -> 1037 ;
1038 [label="X[10] <= 80718.0\ngini = 0.2268\nsamples = 46\nvalue = [40, 6]"] ;
1037 -> 1038 ;
1039 [label="gini = 0.3084\nsamples = 21\nvalue = [17, 4]"] ;
1038 -> 1039 ;
1040 [label="gini = 0.1472\nsamples = 25\nvalue = [23, 2]"] ;
1038 -> 1040 ;
1041 [label="gini = 0.0\nsamples = 26\nvalue = [26, 0]"] ;
1037 -> 1041 ;
1042 [label="X[10] <= 75696.5\ngini = 0.2287\nsamples = 8542\nvalue = [7417, 1125]"] ;
1020 -> 1042 ;
1043 [label="X[5] <= 93.5\ngini = 0.1927\nsamples = 4166\nvalue = [3716, 450]"] ;
1042 -> 1043 ;
1044 [label="X[15] <= 4566.0\ngini = 0.1711\nsamples = 3027\nvalue = [2741, 286]"] ;
1043 -> 1044 ;
1045 [label="X[16] <= 6860.5\ngini = 0.2212\nsamples = 758\nvalue = [662, 96]"] ;
1044 -> 1045 ;
1046 [label="X[25] <= 29.0\ngini = 0.2128\nsamples = 727\nvalue = [639, 88]"] ;
1045 -> 1046 ;
1047 [label="X[24] <= 41.0\ngini = 0.3257\nsamples = 83\nvalue = [66, 17]"] ;
1046 -> 1047 ;
1048 [label="gini = 0.4946\nsamples = 29\nvalue = [16, 13]"] ;
1047 -> 1048 ;
1049 [label="X[18] <= 2975.0\ngini = 0.1372\nsamples = 54\nvalue = [50, 4]"] ;
1047 -> 1049 ;
1050 [label="gini = 0.0\nsamples = 33\nvalue = [33, 0]"] ;
1049 -> 1050 ;
1051 [label="gini = 0.3084\nsamples = 21\nvalue = [17, 4]"] ;
1049 -> 1051 ;
1052 [label="X[19] <= 3612.5\ngini = 0.1962\nsamples = 644\nvalue = [573, 71]"] ;
1046 -> 1052 ;
1053 [label="X[21] <= 6689.5\ngini = 0.2844\nsamples = 134\nvalue = [111, 23]"] ;
1052 -> 1053 ;
1054 [label="X[21] <= 6176.5\ngini = 0.2221\nsamples = 110\nvalue = [96, 14]"] ;
1053 -> 1054 ;
1055 [label="X[10] <= 61443.5\ngini = 0.3133\nsamples = 72\nvalue = [58, 14]"] ;
1054 -> 1055 ;
1056 [label="gini = 0.1049\nsamples = 36\nvalue = [34, 2]"] ;
1055 -> 1056 ;
1057 [label="gini = 0.4444\nsamples = 36\nvalue = [24, 12]"] ;
1055 -> 1057 ;
1058 [label="gini = 0.0\nsamples = 38\nvalue = [38, 0]"] ;
1054 -> 1058 ;
1059 [label="gini = 0.4688\nsamples = 24\nvalue = [15, 9]"] ;
1053 -> 1059 ;
1060 [label="X[14] <= 3574.5\ngini = 0.1705\nsamples = 510\nvalue = [462, 48]"] ;
1052 -> 1060 ;
1061 [label="X[20] <= 6599.5\ngini = 0.157\nsamples = 489\nvalue = [447, 42]"] ;
1060 -> 1061 ;
1062 [label="X[3] <= 3.5\ngini = 0.135\nsamples = 412\nvalue = [382, 30]"] ;
1061 -> 1062 ;
1063 [label="X[10] <= 51743.0\ngini = 0.2518\nsamples = 88\nvalue = [75, 13]"] ;
1062 -> 1063 ;
1064 [label="gini = 0.4444\nsamples = 21\nvalue = [14, 7]"] ;
1063 -> 1064 ;
1065 [label="X[25] <= 116.0\ngini = 0.1631\nsamples = 67\nvalue = [61, 6]"] ;
1063 -> 1065 ;
1066 [label="gini = 0.0512\nsamples = 38\nvalue = [37, 1]"] ;
1065 -> 1066 ;
1067 [label="gini = 0.2854\nsamples = 29\nvalue = [24, 5]"] ;
1065 -> 1067 ;
1068 [label="X[18] <= 3796.5\ngini = 0.0994\nsamples = 324\nvalue = [307, 17]"] ;
1062 -> 1068 ;
1069 [label="X[15] <= 4240.0\ngini = 0.0821\nsamples = 303\nvalue = [290, 13]"] ;
1068 -> 1069 ;
1070 [label="X[24] <= 49.5\ngini = 0.1177\nsamples = 207\nvalue = [194, 13]"] ;
1069 -> 1070 ;
1071 [label="X[4] <= 937.0\ngini = 0.1641\nsamples = 122\nvalue = [111, 11]"] ;
1070 -> 1071 ;
1072 [label="X[15] <= 4118.5\ngini = 0.1161\nsamples = 97\nvalue = [91, 6]"] ;
1071 -> 1072 ;
1073 [label="X[10] <= 56718.5\ngini = 0.0533\nsamples = 73\nvalue = [71, 2]"] ;
1072 -> 1073 ;
1074 [label="gini = 0.1723\nsamples = 21\nvalue = [19, 2]"] ;
1073 -> 1074 ;
1075 [label="gini = 0.0\nsamples = 52\nvalue = [52, 0]"] ;
1073 -> 1075 ;
1076 [label="gini = 0.2778\nsamples = 24\nvalue = [20, 4]"] ;
1072 -> 1076 ;
1077 [label="gini = 0.32\nsamples = 25\nvalue = [20, 5]"] ;
1071 -> 1077 ;
1078 [label="X[3] <= 19.0\ngini = 0.046\nsamples = 85\nvalue = [83, 2]"] ;
1070 -> 1078 ;
1079 [label="gini = 0.0\nsamples = 64\nvalue = [64, 0]"] ;
1078 -> 1079 ;
1080 [label="gini = 0.1723\nsamples = 21\nvalue = [19, 2]"] ;
1078 -> 1080 ;
1081 [label="gini = 0.0\nsamples = 96\nvalue = [96, 0]"] ;
1069 -> 1081 ;
1082 [label="gini = 0.3084\nsamples = 21\nvalue = [17, 4]"] ;
1068 -> 1082 ;
1083 [label="X[19] <= 4545.5\ngini = 0.2631\nsamples = 77\nvalue = [65, 12]"] ;
1061 -> 1083 ;
1084 [label="gini = 0.4444\nsamples = 30\nvalue = [20, 10]"] ;
1083 -> 1084 ;
1085 [label="X[10] <= 63539.0\ngini = 0.0815\nsamples = 47\nvalue = [45, 2]"] ;
1083 -> 1085 ;
1086 [label="gini = 0.1723\nsamples = 21\nvalue = [19, 2]"] ;
1085 -> 1086 ;
1087 [label="gini = 0.0\nsamples = 26\nvalue = [26, 0]"] ;
1085 -> 1087 ;
1088 [label="gini = 0.4082\nsamples = 21\nvalue = [15, 6]"] ;
1060 -> 1088 ;
1089 [label="gini = 0.3829\nsamples = 31\nvalue = [23, 8]"] ;
1045 -> 1089 ;
1090 [label="X[6] <= 29.0\ngini = 0.1535\nsamples = 2269\nvalue = [2079, 190]"] ;
1044 -> 1090 ;
1091 [label="X[29] <= 921.5\ngini = 0.264\nsamples = 147\nvalue = [124, 23]"] ;
1090 -> 1091 ;
1092 [label="X[26] <= 4.5\ngini = 0.1567\nsamples = 70\nvalue = [64, 6]"] ;
1091 -> 1092 ;
1093 [label="gini = 0.2778\nsamples = 30\nvalue = [25, 5]"] ;
1092 -> 1093 ;
1094 [label="gini = 0.0487\nsamples = 40\nvalue = [39, 1]"] ;
1092 -> 1094 ;
1095 [label="X[27] <= 6507.5\ngini = 0.3441\nsamples = 77\nvalue = [60, 17]"] ;
1091 -> 1095 ;
1096 [label="X[10] <= 63980.0\ngini = 0.2098\nsamples = 42\nvalue = [37, 5]"] ;
1095 -> 1096 ;
1097 [label="gini = 0.0907\nsamples = 21\nvalue = [20, 1]"] ;
1096 -> 1097 ;
1098 [label="gini = 0.3084\nsamples = 21\nvalue = [17, 4]"] ;
1096 -> 1098 ;
1099 [label="gini = 0.4506\nsamples = 35\nvalue = [23, 12]"] ;
1095 -> 1099 ;
1100 [label="X[10] <= 31935.5\ngini = 0.145\nsamples = 2122\nvalue = [1955, 167]"] ;
1090 -> 1100 ;
1101 [label="gini = 0.375\nsamples = 24\nvalue = [18, 6]"] ;
1100 -> 1101 ;
1102 [label="X[10] <= 49009.5\ngini = 0.1417\nsamples = 2098\nvalue = [1937, 161]"] ;
1100 -> 1102 ;
1103 [label="X[24] <= 26.0\ngini = 0.0238\nsamples = 166\nvalue = [164, 2]"] ;
1102 -> 1103 ;
1104 [label="gini = 0.142\nsamples = 26\nvalue = [24, 2]"] ;
1103 -> 1104 ;
1105 [label="gini = 0.0\nsamples = 140\nvalue = [140, 0]"] ;
1103 -> 1105 ;
1106 [label="X[3] <= 3.5\ngini = 0.1511\nsamples = 1932\nvalue = [1773, 159]"] ;
1102 -> 1106 ;
1107 [label="X[10] <= 55023.0\ngini = 0.1073\nsamples = 633\nvalue = [597, 36]"] ;
1106 -> 1107 ;
1108 [label="X[14] <= 4701.5\ngini = 0.2923\nsamples = 45\nvalue = [37, 8]"] ;
1107 -> 1108 ;
1109 [label="gini = 0.0799\nsamples = 24\nvalue = [23, 1]"] ;
1108 -> 1109 ;
1110 [label="gini = 0.4444\nsamples = 21\nvalue = [14, 7]"] ;
1108 -> 1110 ;
1111 [label="X[29] <= 1970.0\ngini = 0.0907\nsamples = 588\nvalue = [560, 28]"] ;
1107 -> 1111 ;
1112 [label="X[4] <= 509.5\ngini = 0.0677\nsamples = 456\nvalue = [440, 16]"] ;
1111 -> 1112 ;
1113 [label="X[26] <= 4.5\ngini = 0.138\nsamples = 161\nvalue = [149, 12]"] ;
1112 -> 1113 ;
1114 [label="X[5] <= 36.0\ngini = 0.2952\nsamples = 50\nvalue = [41, 9]"] ;
1113 -> 1114 ;
1115 [label="gini = 0.1528\nsamples = 24\nvalue = [22, 2]"] ;
1114 -> 1115 ;
1116 [label="gini = 0.3935\nsamples = 26\nvalue = [19, 7]"] ;
1114 -> 1116 ;
1117 [label="X[12] <= 3.0\ngini = 0.0526\nsamples = 111\nvalue = [108, 3]"] ;
1113 -> 1117 ;
1118 [label="X[24] <= 47.5\ngini = 0.1327\nsamples = 42\nvalue = [39, 3]"] ;
1117 -> 1118 ;
1119 [label="gini = 0.0\nsamples = 21\nvalue = [21, 0]"] ;
1118 -> 1119 ;
1120 [label="gini = 0.2449\nsamples = 21\nvalue = [18, 3]"] ;
1118 -> 1120 ;
1121 [label="gini = 0.0\nsamples = 69\nvalue = [69, 0]"] ;
1117 -> 1121 ;
1122 [label="X[16] <= 9837.0\ngini = 0.0268\nsamples = 295\nvalue = [291, 4]"] ;
1112 -> 1122 ;
1123 [label="X[20] <= 5435.5\ngini = 0.0079\nsamples = 252\nvalue = [251, 1]"] ;
1122 -> 1123 ;
1124 [label="gini = 0.0768\nsamples = 25\nvalue = [24, 1]"] ;
1123 -> 1124 ;
1125 [label="gini = 0.0\nsamples = 227\nvalue = [227, 0]"] ;
1123 -> 1125 ;
1126 [label="X[16] <= 10756.0\ngini = 0.1298\nsamples = 43\nvalue = [40, 3]"] ;
1122 -> 1126 ;
1127 [label="gini = 0.2449\nsamples = 21\nvalue = [18, 3]"] ;
1126 -> 1127 ;
1128 [label="gini = 0.0\nsamples = 22\nvalue = [22, 0]"] ;
1126 -> 1128 ;
1129 [label="X[10] <= 67267.0\ngini = 0.1653\nsamples = 132\nvalue = [120, 12]"] ;
1111 -> 1129 ;
1130 [label="gini = 0.3496\nsamples = 31\nvalue = [24, 7]"] ;
1129 -> 1130 ;
1131 [label="X[29] <= 2124.0\ngini = 0.0941\nsamples = 101\nvalue = [96, 5]"] ;
1129 -> 1131 ;
1132 [label="X[20] <= 6918.0\ngini = 0.1709\nsamples = 53\nvalue = [48, 5]"] ;
1131 -> 1132 ;
1133 [label="gini = 0.0\nsamples = 21\nvalue = [21, 0]"] ;
1132 -> 1133 ;
1134 [label="gini = 0.2637\nsamples = 32\nvalue = [27, 5]"] ;
1132 -> 1134 ;
1135 [label="gini = 0.0\nsamples = 48\nvalue = [48, 0]"] ;
1131 -> 1135 ;
1136 [label="X[4] <= 737.0\ngini = 0.1714\nsamples = 1299\nvalue = [1176, 123]"] ;
1106 -> 1136 ;
1137 [label="X[10] <= 72729.5\ngini = 0.1465\nsamples = 905\nvalue = [833, 72]"] ;
1136 -> 1137 ;
1138 [label="X[24] <= 37.0\ngini = 0.1272\nsamples = 718\nvalue = [669, 49]"] ;
1137 -> 1138 ;
1139 [label="X[0] <= 1.5\ngini = 0.028\nsamples = 141\nvalue = [139, 2]"] ;
1138 -> 1139 ;
1140 [label="gini = 0.0\nsamples = 109\nvalue = [109, 0]"] ;
1139 -> 1140 ;
1141 [label="gini = 0.1172\nsamples = 32\nvalue = [30, 2]"] ;
1139 -> 1141 ;
1142 [label="X[10] <= 71045.0\ngini = 0.1496\nsamples = 577\nvalue = [530, 47]"] ;
1138 -> 1142 ;
1143 [label="X[10] <= 68122.0\ngini = 0.1677\nsamples = 498\nvalue = [452, 46]"] ;
1142 -> 1143 ;
1144 [label="X[10] <= 64502.5\ngini = 0.1298\nsamples = 387\nvalue = [360, 27]"] ;
1143 -> 1144 ;
1145 [label="X[10] <= 57145.5\ngini = 0.1687\nsamples = 258\nvalue = [234, 24]"] ;
1144 -> 1145 ;
1146 [label="X[26] <= 11.0\ngini = 0.0932\nsamples = 102\nvalue = [97, 5]"] ;
1145 -> 1146 ;
1147 [label="gini = 0.0\nsamples = 56\nvalue = [56, 0]"] ;
1146 -> 1147 ;
1148 [label="X[10] <= 53420.5\ngini = 0.1938\nsamples = 46\nvalue = [41, 5]"] ;
1146 -> 1148 ;
1149 [label="gini = 0.3084\nsamples = 21\nvalue = [17, 4]"] ;
1148 -> 1149 ;
1150 [label="gini = 0.0768\nsamples = 25\nvalue = [24, 1]"] ;
1148 -> 1150 ;
1151 [label="X[14] <= 4323.0\ngini = 0.2139\nsamples = 156\nvalue = [137, 19]"] ;
1145 -> 1151 ;
1152 [label="gini = 0.3893\nsamples = 34\nvalue = [25, 9]"] ;
1151 -> 1152 ;
1153 [label="X[19] <= 7249.0\ngini = 0.1505\nsamples = 122\nvalue = [112, 10]"] ;
1151 -> 1153 ;
1154 [label="X[16] <= 6849.5\ngini = 0.0286\nsamples = 69\nvalue = [68, 1]"] ;
1153 -> 1154 ;
1155 [label="gini = 0.0907\nsamples = 21\nvalue = [20, 1]"] ;
1154 -> 1155 ;
1156 [label="gini = 0.0\nsamples = 48\nvalue = [48, 0]"] ;
1154 -> 1156 ;
1157 [label="X[21] <= 11871.0\ngini = 0.282\nsamples = 53\nvalue = [44, 9]"] ;
1153 -> 1157 ;
1158 [label="gini = 0.4082\nsamples = 28\nvalue = [20, 8]"] ;
1157 -> 1158 ;
1159 [label="gini = 0.0768\nsamples = 25\nvalue = [24, 1]"] ;
1157 -> 1159 ;
1160 [label="X[24] <= 47.5\ngini = 0.0454\nsamples = 129\nvalue = [126, 3]"] ;
1144 -> 1160 ;
1161 [label="X[14] <= 5321.5\ngini = 0.1195\nsamples = 47\nvalue = [44, 3]"] ;
1160 -> 1161 ;
1162 [label="gini = 0.074\nsamples = 26\nvalue = [25, 1]"] ;
1161 -> 1162 ;
1163 [label="gini = 0.1723\nsamples = 21\nvalue = [19, 2]"] ;
1161 -> 1163 ;
1164 [label="gini = 0.0\nsamples = 82\nvalue = [82, 0]"] ;
1160 -> 1164 ;
1165 [label="X[5] <= 68.5\ngini = 0.2837\nsamples = 111\nvalue = [92, 19]"] ;
1143 -> 1165 ;
1166 [label="X[25] <= 75.5\ngini = 0.1713\nsamples = 74\nvalue = [67, 7]"] ;
1165 -> 1166 ;
1167 [label="gini = 0.0\nsamples = 39\nvalue = [39, 0]"] ;
1166 -> 1167 ;
1168 [label="gini = 0.32\nsamples = 35\nvalue = [28, 7]"] ;
1166 -> 1168 ;
1169 [label="gini = 0.4383\nsamples = 37\nvalue = [25, 12]"] ;
1165 -> 1169 ;
1170 [label="X[15] <= 9033.5\ngini = 0.025\nsamples = 79\nvalue = [78, 1]"] ;
1142 -> 1170 ;
1171 [label="gini = 0.0\nsamples = 58\nvalue = [58, 0]"] ;
1170 -> 1171 ;
1172 [label="gini = 0.0907\nsamples = 21\nvalue = [20, 1]"] ;
1170 -> 1172 ;
1173 [label="X[21] <= 12337.5\ngini = 0.2157\nsamples = 187\nvalue = [164, 23]"] ;
1137 -> 1173 ;
1174 [label="X[4] <= 465.5\ngini = 0.1713\nsamples = 148\nvalue = [134, 14]"] ;
1173 -> 1174 ;
1175 [label="X[10] <= 73302.0\ngini = 0.1182\nsamples = 111\nvalue = [104, 7]"] ;
1174 -> 1175 ;
1176 [label="gini = 0.3084\nsamples = 21\nvalue = [17, 4]"] ;
1175 -> 1176 ;
1177 [label="X[24] <= 54.5\ngini = 0.0644\nsamples = 90\nvalue = [87, 3]"] ;
1175 -> 1177 ;
1178 [label="gini = 0.0\nsamples = 55\nvalue = [55, 0]"] ;
1177 -> 1178 ;
1179 [label="gini = 0.1567\nsamples = 35\nvalue = [32, 3]"] ;
1177 -> 1179 ;
1180 [label="gini = 0.3068\nsamples = 37\nvalue = [30, 7]"] ;
1174 -> 1180 ;
1181 [label="gini = 0.355\nsamples = 39\nvalue = [30, 9]"] ;
1173 -> 1181 ;
1182 [label="X[20] <= 7488.5\ngini = 0.2254\nsamples = 394\nvalue = [343, 51]"] ;
1136 -> 1182 ;
1183 [label="X[4] <= 774.0\ngini = 0.1528\nsamples = 228\nvalue = [209, 19]"] ;
1182 -> 1183 ;
1184 [label="X[14] <= 3909.0\ngini = 0.2923\nsamples = 45\nvalue = [37, 8]"] ;
1183 -> 1184 ;
1185 [label="gini = 0.3856\nsamples = 23\nvalue = [17, 6]"] ;
1184 -> 1185 ;
1186 [label="gini = 0.1653\nsamples = 22\nvalue = [20, 2]"] ;
1184 -> 1186 ;
1187 [label="X[25] <= 179.0\ngini = 0.113\nsamples = 183\nvalue = [172, 11]"] ;
1183 -> 1187 ;
1188 [label="X[7] <= 4.5\ngini = 0.0731\nsamples = 158\nvalue = [152, 6]"] ;
1187 -> 1188 ;
1189 [label="gini = 0.0\nsamples = 58\nvalue = [58, 0]"] ;
1188 -> 1189 ;
1190 [label="X[7] <= 8.5\ngini = 0.1128\nsamples = 100\nvalue = [94, 6]"] ;
1188 -> 1190 ;
1191 [label="gini = 0.2378\nsamples = 29\nvalue = [25, 4]"] ;
1190 -> 1191 ;
1192 [label="X[18] <= 3557.5\ngini = 0.0548\nsamples = 71\nvalue = [69, 2]"] ;
1190 -> 1192 ;
1193 [label="gini = 0.1723\nsamples = 21\nvalue = [19, 2]"] ;
1192 -> 1193 ;
1194 [label="gini = 0.0\nsamples = 50\nvalue = [50, 0]"] ;
1192 -> 1194 ;
1195 [label="gini = 0.32\nsamples = 25\nvalue = [20, 5]"] ;
1187 -> 1195 ;
1196 [label="X[18] <= 6603.5\ngini = 0.3112\nsamples = 166\nvalue = [134, 32]"] ;
1182 -> 1196 ;
1197 [label="X[21] <= 10811.0\ngini = 0.4004\nsamples = 112\nvalue = [81, 31]"] ;
1196 -> 1197 ;
1198 [label="X[25] <= 59.0\ngini = 0.3282\nsamples = 87\nvalue = [69, 18]"] ;
1197 -> 1198 ;
1199 [label="X[5] <= 28.0\ngini = 0.4274\nsamples = 42\nvalue = [29, 13]"] ;
1198 -> 1199 ;
1200 [label="gini = 0.4989\nsamples = 21\nvalue = [11, 10]"] ;
1199 -> 1200 ;
1201 [label="gini = 0.2449\nsamples = 21\nvalue = [18, 3]"] ;
1199 -> 1201 ;
1202 [label="X[25] <= 135.5\ngini = 0.1975\nsamples = 45\nvalue = [40, 5]"] ;
1198 -> 1202 ;
